relation,0,1,2,3,4,5,6,7,8,9,10,11,12,13,14,15,16,17,18,19,20,21,22,23,24,25,26,27,28,29,30,31
"X1",0.22678976893463879,-0.20199095683761245,-0.2755078316292842,-0.056725628864599455,0.11842266998765053,-0.11019331859156122,0.100986685296433,-0.11515507778717166,0.1146631198216917,-0.1408887860040037,-0.11647210196194636,-0.053561892141676073,0.03810379729495716,0.11887590275521588,0.1608745635300263,-0.13970518913243077,-0.035649215297767586,0.08608481802177034,-0.060863599299288265,0.023547982347777625,-7.552596495574032e-05,0.01305362698171539,0.026657636866149755,-0.017506915036035547,0.045166089199975425,-0.00015883775215386032,0.007675121378621786,-0.09605500355902945,0.04809339219268547,-0.06238724944828188,0.2656593354171652,0.0692162370618981,0.19296015534464872,0.06722205346227499,0.09481239546031858,0.10628368735489525,-0.013803919962700853,-0.04855923692142325,-0.07220879715158536,0.07235966259522958,-0.03935581550188808,-0.04954648986486206,0.014110806899254483,-0.03737877900201864,0.06801772681451733,0.03845866672738131,0.10388448929064192,0.1534447083627351,-0.030157638547526882,0.08380650371600079,0.008042041431670456,-0.02663493999870491,0.0055815093491074,-0.09079477526442278,-0.01009278209996037,0.07039094623247243,-0.0712977651596361,0.0576202294522717,-0.07087014456137929,0.08089576268471683,-0.056443365291190664,0.02632383987492494,-0.055080763970671985,0.04111550506092923,-0.036528558476740774,-0.10388305543853273,0.026198484298004938,-0.013016558857991918,0.01246946163933982,-0.030849018299599906,0.07357815436711203,-0.004538436287957081,-0.001839503058022566,0.02934893049588513,-0.056491192881344215,0.03360367960296261,0.10108379776278069,-0.12955474160008174,0.02045964436854887,-0.006329299309462005,0.02158601497558076,0.0062855159572385915,0.012271700979798255,-0.07379175073839533,0.06021178343269834,0.08989538937328691,0.045857384369303776,-0.11690863810027638,0.0234011816622173,-0.04394331581714859,-0.1543004096840508,0.08656664654429012,-0.059804214410474094,-0.1074491744339445,0.002550834217465155,-0.04134232644530755,-0.13727101721837387,0.0462169983336884,-0.16547645235276554,-0.02193622164003488,-0.032412617171329004,-0.039038121004512795,-0.09732244318954109,0.039923156482113024,-0.04192013848423477,0.9461998848058469,-0.09331546620404765,0.1405626940079776,0.003211116504138397,0.07658881024327681,-0.06129548756990348,0.004730225604212193,0.040796808036120916,0.18579474009323427,0.062061144299137394,-0.010702751965026678,-0.046202465174116934,-0.03427891575760102,0.07192780877135477,0.13134267374217845,0.022177506889132663,0.050044569252220374,0.15911579198784215,0.009956804174486671,0.21758026237012149,0.030014261114529893,0.03775584270441766,-0.06017476764640363
"X2",0.22682356914327295,-0.2019446140145604,-0.2755655185981342,-0.05664363391045658,0.11829238950628493,-0.11014166713366613,0.10097682526084989,-0.11517124926233224,0.11466168733924043,-0.1410090887993598,-0.11650332233991022,-0.05356700401489621,0.03806023941423876,0.11887738230197725,0.16086700509887275,-0.13967671700744091,-0.035642069109462556,0.08612036252599987,-0.06083023748837651,0.02355268691125509,-9.253357685851563e-05,0.013024455947063356,0.02667432654536595,-0.017549245197762076,0.04521195363628978,-0.00014925319600412958,0.007661175202984962,-0.09604700957692569,0.04806810918666228,-0.06241440706580521,0.26575266483472065,0.0693063537069205,0.19305985734443618,0.06723315070521103,0.09473477803486124,0.1062805492035937,-0.013850259594219374,-0.04860570955265024,-0.07220403057165779,0.0723545338564028,-0.03933962772013496,-0.04953568249926996,0.014107243068207131,-0.03741600822093032,0.06800766614299912,0.038475158544347736,0.1038867125840901,0.15339719305945554,-0.03012441985932251,0.08380430295488107,0.0080568850050451,-0.026567788853197355,0.005534490531134309,-0.09075942906160955,-0.010258530485999246,0.07039994080410955,-0.0712516056854115,0.05760583210292207,-0.07087230445467473,0.08084957259316648,-0.0563875890367916,0.026318127011362685,-0.05507445505523004,0.04120849966537014,-0.03649056626060393,-0.10395845680650487,0.026138686484206915,-0.013033205209355624,0.012501824639341979,-0.030853344298669982,0.07356774163971734,-0.004445463208184276,-0.00177818270008627,0.029354401372234665,-0.056489565443907576,0.03360066959425852,0.10108300259817467,-0.12960206365869725,0.020438781898396218,-0.006342790737560123,0.0215775243580125,0.006276991050311252,0.012252312475553254,-0.07378406924274372,0.06023141583538289,0.0898912690510519,0.045848191820048435,-0.1169043630538107,0.023407167385981014,-0.04393740612413682,-0.15428969559435726,0.08656590461020998,-0.05982094070955433,-0.10745451070448843,0.0025522824301464735,-0.041338547940655924,-0.13727190246061172,0.04609540413306659,-0.16550407369149578,-0.021910238304265226,-0.03246748955333171,-0.03923976830853948,-0.09731055836490306,0.0283642574781946,-0.0418967703523954,-0.052329049459684376,-0.09330914181621433,0.11098657103678664,0.9993430158469347,0.09145975235628348,-0.061295566788576526,0.004733723030327777,0.040835715571781374,0.18577629981963542,0.06209780194933222,-0.010698817873559882,-0.04620342022622773,-0.03426710452776081,0.07212917968341494,0.1313320954164436,0.02214896279207662,0.049966475449114825,0.15908349315041406,0.009975915376740085,0.21751726936091445,0.029902705032666503,0.03790551111684872,-0.05998247551999479
"X3",0.22682764319667467,-0.20204476938589253,-0.2755467552777299,-0.05691574296834395,0.11826558307505151,-0.11004972766311666,0.10102988312790744,-0.11514645547884338,0.1146043324487881,-0.14084519624751496,-0.116480405560955,-0.05339400841897602,0.03809795124219709,0.11896953470408984,0.16093032125280252,-0.13968142738293235,-0.035638019770565375,0.08612493006518146,-0.060852686885857744,0.0235536894518497,-6.401565930358021e-05,0.01302852533062182,0.026671247851478265,-0.01755321901697018,0.04518992203918627,-0.00016306034530070405,0.007657068081020793,-0.09606690671698302,0.04807748222709897,-0.062374041718584176,0.2657420769122356,0.06918690777260862,0.1929954105687842,0.06720696867228343,0.0947999144968151,0.10628517674595747,-0.013832674837561685,-0.04858195016682143,-0.07220225018457589,0.07235436400754393,-0.03935107174668871,-0.04954847788487059,0.014109187514231777,-0.037403720457242544,0.06800786198822349,0.038456428896984376,0.10390872283820378,0.15347456650991778,-0.030047322616908644,0.08380931456949149,0.008031732463704453,-0.02657745626261398,0.005478010476554446,-0.09077115868152048,-0.010219045141039579,0.07032990838536508,-0.07132254465957785,0.0576337681185038,-0.07086797278235957,0.08075382073199597,-0.056482661726847114,0.026318162899485017,-0.055084523717842025,0.041089915262676795,-0.03645223503449412,-0.10396809776289334,0.026131599522053107,-0.013139887496482504,0.012478377061402056,-0.030824641095553447,0.07357523127438931,-0.00446902519001412,-0.0018253788656868854,0.029309035066602387,-0.05648753950345841,0.03360176529065667,0.10106478981578136,-0.12960991773994424,0.020501130109360194,-0.006367054732535542,0.02158748034004452,0.006284249882154732,0.012260313831206168,-0.07379895617013842,0.06021998072222454,0.08989057541460037,0.045848632126740105,-0.11676102920358968,0.02341432055351331,-0.04394421544215808,-0.15336124467439394,0.08657931731060513,-0.06081849800937362,-0.10986998443063448,0.002553565880746373,-0.04496835352294022,-0.08206248195061491,0.9818067025287309,0.011691678242287284,-0.021919469431209256,-0.03245070905224244,-0.03923685898683231,-0.09732035254703705,0.028374532598496503,-0.04190467250499185,-0.05234350712357617,-0.09331352730039617,0.13425447303952495,0.0032212399979629196,0.07656399131629064,-0.061294857691624814,0.004722971191033691,0.040824463234943605,0.18578597887516338,0.06209811440161006,-0.010691129173291547,-0.0462023532039914,-0.03445115118592861,0.07194889464189337,0.1312269015189207,0.022163085851421422,0.050055827216080415,0.15909237242972543,0.009992892491416688,0.21743963967709393,0.029847878643855352,0.03791155466606166,-0.06013421677411449
"X4",-0.7656577218805221,-0.20189725036933523,-0.27563161621088594,-0.0566004773692837,0.11830322420382888,-0.15449963085768179,0.10218091932757595,-0.11510430213283362,0.11465991979107461,-0.1403308806518674,-0.11636991403226483,-0.05304786856689605,0.038090025789989,0.11888860987618162,0.1608860986252925,-0.1402455698579027,-0.036192343031498916,0.08611511711185478,-0.06087160898254746,0.023256391441114674,4.285734182721902e-05,0.013013461099077382,0.026684893448782582,-0.017556460223312646,0.04520243107738976,-0.00014974752615897982,0.007676600544460241,-0.09604732440943997,0.0480776179035287,-0.06239219286912493,0.2657393080949729,0.06925580236851873,0.19299480079431455,0.06722270916225545,0.09483209251495056,0.10628486522309351,-0.013842434832120594,-0.048590854974004886,-0.07219718523665408,0.07236190768836845,-0.03935507277997852,-0.04955647598883332,0.014106793081173175,-0.037411108398562154,0.06801578959348188,0.03846947191877558,0.1038978740794898,0.15350576625790377,-0.030172861445151817,0.08380884539733503,0.008052082551391693,-0.02647121546812249,0.005484915713890131,-0.09076466546877467,-0.010200955557835342,0.07038405453740214,-0.07124349265364788,0.05762400153591784,-0.07088316463224154,0.08089385108152436,-0.05649324693426634,0.026320704523398727,-0.055081804962319236,0.041110124375253417,-0.0365720004600675,-0.10399928046264885,0.026274075441561042,-0.013048026268264575,0.012494080764957144,-0.030803293476458563,0.07357702020438907,-0.004523272166729028,-0.0018809693463389765,0.02937967393856267,-0.05649339849622068,0.03360345167686175,0.10108369298290569,-0.12959029784630616,0.02046061574427708,-0.006363279938278566,0.021536270047524883,0.006264742951320296,0.012255595857246912,-0.07377624318569119,0.060230384296090914,0.08990814309435455,0.045862608985755136,-0.11691274549613567,0.023415236149295224,-0.0439443752861154,-0.15430719505322027,0.08657285262235631,-0.05979513852270517,-0.10744951652555047,0.002554367656419173,-0.04133897060002136,-0.1373295942051901,0.046122804953435945,-0.1654712165333041,-0.02194222026453849,-0.03241159499635342,-0.03924378141382541,-0.09732175873418734,0.028366358376105502,-0.041924505197285446,-0.052335083516406304,-0.09331657276807652,0.13425243827328925,0.0032231339744542083,0.07657169879748778,-0.06129516248553535,0.004734959883217993,0.04081538293738695,0.1857957266827752,0.062032897173922394,-0.01069231774431868,-0.0462078491392706,-0.034287341408419755,0.07191447498551022,0.13132272897895717,0.02217214597954388,0.05005530579733054,0.15911262271753224,0.009946705965868436,0.21747400467441608,0.029959868702143507,0.037798983260216364,-0.060176987004479945
"X5",0.22659559252921363,-0.20208558337020013,-0.27544104257558905,-0.05688380690199218,0.11831053435269986,-0.1100548669141632,0.10099043086393616,-0.1151164749225435,0.11461867383165886,-0.140941080236346,-0.11632293162074142,-0.053660908672559064,0.038110253910681596,0.11898609241334836,0.16089874639646373,-0.1397607458802032,-0.03563780965135885,0.08610010113744339,-0.06084198334951536,0.023565658628167004,-7.578461819297789e-05,0.013029498717142247,0.026703228697474886,-0.01753627531057577,0.04517464097882425,-0.0001616591152784527,0.00766308385143609,-0.09603216118239262,0.04807165861204925,-0.06239452873876904,0.2656920820303697,0.06925425598989714,0.19301622688229791,0.06719506722337093,0.0948420865362155,0.1062761684806522,-0.013912104867737087,-0.04862382012117703,-0.07219232993585688,0.07235187104689737,-0.0393511617049593,-0.049551754528276135,0.01410743658759136,-0.03742044511706016,0.06801560749135516,0.03845773373120875,0.10387042479549789,0.15344970082119294,-0.030150203617043354,0.08380458368011305,0.00803306962689399,-0.026676926783188802,0.005092995020953012,0.7536035425271357,-0.010245106858680134,0.0704020825545789,-0.0712696961009911,-0.475870742246514,-0.07073035729697776,0.0808520555996414,-0.05656804930704563,0.026319600530828605,-0.05507680932930593,0.041167362067982514,-0.03644288141769174,-0.10387763546651052,0.02614300004339029,-0.01305286719024376,0.012556639544071919,-0.030784693180842305,0.07356599573962766,-0.004598567727737793,-0.0018689312494491713,0.029345673729860047,-0.056490691456848596,0.03360040688951694,0.10105710744395743,-0.12961018589601078,0.020456422392312195,-0.006322070322860393,0.0215704222540059,0.0062649249001474425,0.012266663992685356,-0.07379273729791384,0.06022122136691995,0.0898947789142724,0.04585483987395734,-0.11690381813749143,0.02339412861604221,-0.043940969464928516,-0.15429230574345199,0.08658049043992733,-0.059801141992102014,-0.1074370827140541,0.0025502169846819255,-0.04133128991686047,-0.1372798152499982,0.0461626929893814,-0.16554344700201817,-0.02192068436599108,-0.03242538297699302,-0.039221183047239865,-0.09731085719935378,0.028370164070921296,-0.041907087359810774,-0.0523294871977959,-0.09330894789674812,0.13423723326328665,0.0032238747453106308,0.07657687416383724,-0.06129143789633453,0.004727849591592144,0.04080695049046008,0.18577798250965694,0.062094272858724715,-0.010686980373060343,-0.0461961488166338,-0.03431485588105753,0.07187791033604175,0.13136823801359926,0.022154803384413255,0.05006676535079729,0.15906720052787854,0.009951054769374237,0.21749109623952162,0.029883685807127504,0.03792531809825391,-0.060277095445839375
"X6",0.22753732601426852,-0.20239037766733095,-0.27665382384898507,-0.05724075116191174,0.11729012138530218,-0.10961498143486798,0.1012587646436755,-0.1150342546039894,0.11497477329883236,-0.13620819759648417,-0.11282260488388682,-0.05165362154890874,0.03795256894646034,0.11978187357523119,0.16120512015500335,-0.13995574156268878,-0.03565073380693763,0.08624735173592152,-0.060746265322074264,0.023560167639372426,-0.00025097745014854685,0.01263870161101357,0.026945375711544525,-0.017808504780195616,0.045164684808752575,-0.00015978966487936743,0.00768804331898131,-0.09607052843479148,0.0481485175746274,-0.062455588588001154,0.2668310346524879,0.06971775792950297,0.19343769258492655,0.06702004032184686,0.09470787686424734,0.1063389248329232,-0.013637879906922012,-0.0484076708930669,-0.0722159843591532,0.07236805290506522,-0.03940912964266403,-0.04958256742239554,0.01409906276231793,-0.037630107740192466,0.06804726322237406,0.038673375467475755,0.10320338840871168,0.15406692086251186,-0.03066444086251604,0.0835676935977389,0.00787210716688569,-0.026056175697332644,0.004466743430395236,-0.09086262997428307,-0.01039102952711925,0.07146198213026184,-0.06811101891904608,0.05761607069067631,-1.0615854290597562,0.08042129801910461,0.037251427508108816,0.02633869740634969,-0.0551094052966813,0.04172721289613329,-0.037368826162539046,-0.10469918951049166,0.026893780273896602,-0.012477258215604477,0.012830025384812321,-0.030262151450440287,0.07360891396339231,-0.003556418948714354,-0.001478851625621496,0.029108242759411488,-0.056513723179033075,0.03361527113158185,0.10084237206999269,-0.12982488063344605,0.020581170225347625,-0.006667144367451319,0.021495130568774532,0.006194819411712746,0.012221799391975605,-0.07379083137113382,0.06023378982734294,0.08992551128036497,0.045551040704370986,-0.11697239653935015,0.02370468901112127,-0.04396408270183738,-0.1543845549729714,0.08664795452355281,-0.05984430027683575,-0.10747052108028621,0.0025522435461806563,-0.04131368265877491,-0.13783620679859293,0.04611045718899713,-0.16481219699635336,-0.02181318584295638,-0.03266917012867736,-0.03925886498295596,-0.09735632153405036,0.028484498431052847,-0.04182332313491119,-0.05234325549391788,-0.09336276484513656,0.13432104218675187,0.0032803948606109465,0.07646186992789186,-0.06132488749419061,0.004719256313279077,0.04098554725728272,0.18584176290537094,0.06214878987430267,-0.01070468467727798,-0.04622936388909151,-0.03437154832858211,0.07216829146771807,0.13129791899203774,0.022049016974513332,0.05010971911435169,0.15913991896729174,0.010088934097566536,0.21657423468453527,0.0288207075599539,0.03807911665245475,-0.060279701327292316
"X7",0.22679275711165328,-0.2019144784592715,-0.2755632784160534,-0.05676149112352077,0.11833528876789166,-0.11011617576270805,0.10101117044818417,-0.11516934507598142,0.11460038588954033,-0.1407606279948798,-0.11630528607640235,-0.053429017035786446,0.038210689775204504,0.11907038161401258,0.16086706193803435,-0.13970402861390707,-0.035633987301354385,0.08611098243498946,-0.06084793830538095,0.023585951821812,-7.983881312487988e-05,0.013043824129525677,0.02663139256142742,-0.017506287488862345,0.04517951230397521,-0.00016775715088262905,0.00767187604403443,-0.09606891940468101,0.04807653268436736,-0.062404658873122014,0.2657480449881545,0.06928690761055656,0.19299821497788336,0.06722396164399168,0.09475890325436877,0.10628365015547661,-0.013865076515890425,-0.04853979348994091,-0.07219844106689657,0.07235110200516899,-0.03934717627948324,-0.04954618444499123,0.014103346358688934,-0.03740854468055334,0.06801451897738721,0.03846562623423432,0.10387237177665486,0.15347250638819604,-0.030145406507272297,0.08380901021398443,0.007998671914919497,-0.02651245854388875,0.00553805998094109,-0.09075688594954824,-0.010236948381222898,0.07040725879948309,-0.07136067658426119,0.057626646331661036,-0.07086878736115879,0.08083682714704161,-0.056539460192610344,0.026322907335605227,-0.055076778819727994,0.041167792359309945,-0.036455089212028516,-0.10383324744898917,0.026170090324467418,-0.01303723424358395,0.012484400373116895,-0.030773270732383624,0.07357284438671048,-0.004472604095105754,-0.0018608249980794106,0.02933514162791276,-0.05649106406169253,0.03360233346369712,0.10099418659063822,-0.12962728717954086,0.020483279623375258,-0.0063415267941026796,0.0215646172498046,0.006287541238653655,0.012262699775008578,-0.07379408246356367,0.06021499673600596,0.08989632463374456,0.04584606322321677,-0.11690777909117377,0.023385807669290493,-0.04393922053719451,-0.15429619281164883,0.08656627461184935,-0.05979875366071167,-0.10743782765159177,0.0025511155565057894,-0.04134109746551829,-0.13724748215698537,0.046115807109785655,-0.1655739348564105,-0.02192939323546255,-0.0324449333236057,-0.039241123774032646,-0.09732280632551579,0.028373302235456702,-0.041919157605601554,-0.05231912405876274,-0.09331005738308844,0.13424677985538225,0.003218836423585173,0.07658709443387297,-0.06128866276938157,0.004731268491747203,0.04083709159484351,0.18578752849241198,0.0621178711965187,-0.010692824821639437,-0.046270598341299936,-0.03440095441478929,0.07191604687096781,0.13134534843437093,0.022137580979800668,0.05005488336386083,0.1589964324934396,0.010524146962990238,1.1832901141455896,0.029905603726084223,0.037914181994284576,-0.31246886840207533
"X8",0.22680181844464115,-1.1897208103771773,-0.35865327321448937,-0.058784767004182135,0.11837089826694777,-0.11016602269516428,0.1004899610692786,-0.11532571203472411,0.11467389509396564,-0.14110767639485072,-0.1167774829233334,-0.052985424046922254,0.03812407218093841,0.11901954846009458,0.16094660710539224,-0.13967747462640512,-0.035637547686172055,0.08611212453817677,-0.06085125899904185,0.023553175454292023,-9.347086939730969e-05,0.013014092126305258,0.026711492242192665,-0.0175708925829026,0.04520168397380963,-0.00016435068078724853,0.007677901386350093,-0.09602655726519299,0.048072761979850276,-0.062360973887824,0.2657444240337941,0.06928345553562568,0.19301146289121224,0.06722268197640154,0.09478624248853554,0.10627573335220063,-0.013858018259278983,-0.0485424129310858,-0.07221597634336814,0.07234759655942832,-0.039562969806245275,-0.04954789276216415,0.014101447732921093,-0.037381658178431254,0.06801327305171703,0.038466367720100675,0.1038708599600877,0.1533779187290873,-0.03011430044836221,0.08379793919438905,0.008036203229766671,-0.026457326395200327,0.0055149801301481735,-0.09074352558879412,-0.01017561004869293,0.07034345929712335,-0.07139630780737069,0.05761884097147201,-0.07085342145706644,0.08080264909325223,-0.056486662025563975,0.02631862821682171,-0.05507388905237772,0.04114397220744308,-0.03646793235266035,-0.10393642501773154,0.026125793794833728,-0.013042514388493852,0.012528008187496947,-0.03081518788132419,0.07356952672268753,-0.004501293088886168,-0.0018387802761068396,0.029329371190563797,-0.05648994652104886,0.03360090155812958,0.10107115135523836,-0.12961206021490987,0.02046260662767479,-0.006338590992728193,0.02155373807790956,0.006258721857240454,0.012266572223025435,-0.07379197218186605,0.06021839771637276,0.08988219800795945,0.04585799276674509,-0.1168991499730676,0.023421421964062474,-0.043939616886007726,-0.15427965485734324,0.08656854788262437,-0.05980541646901854,-0.10743769775781689,0.002546138491340511,-0.041322134729032026,-0.1372745348756741,0.046121252002633846,-0.16551354562586654,-0.021921345834098077,-0.03242204059395074,-0.03923764685372342,-0.09730931716798448,0.028359139606897826,-0.041905216149972904,-0.05233945121659627,-0.09331193634849021,0.13424525712507432,0.0032116004329349854,0.07656580869423225,-0.061292712845875924,0.004729161327546455,0.04080979531955627,0.18577412735341267,0.06206155133706348,-0.010700021069289264,-0.04619544107350581,-0.0342814046434537,0.07191400400922791,0.13129596837415827,0.022147656521873397,0.05003717005275897,0.15909981809445936,0.00995157335896201,0.21751009583067782,0.02992428976313404,0.037916320807528305,-0.060380582361506833
"X9",0.22674851342144214,-0.2019193345687264,-0.2754382168532429,-0.056733665522520224,0.11831240207482438,-0.11009196690763262,0.10103988936935951,-0.11603374582749126,0.20392482186193744,-0.7913555702203487,0.14201636545301022,0.05517294252787884,0.0381354039212987,0.153973080520865,0.1774871925443783,-0.1463653619024667,-0.03563503497181357,0.08610985220980387,-0.057468481492642866,0.02023937082506199,-6.419013708580979e-05,0.013046633067850318,0.029245047068554686,-0.017524186883999607,0.045160159724703636,-0.0001736042463649323,0.00767015535399759,-0.09606356489097867,0.04805428458106002,-0.06403070657101625,0.26570063684735545,0.06884582617174259,0.19297466324022763,0.06724838325206779,0.0943967093787586,0.10675010744586477,-0.014330873395268348,-0.047886364785468705,-0.07193503039483651,0.07235550224678676,-0.03935857420810582,-0.0494518532686788,0.014101704179340813,-0.03736404865394571,0.06812743746549269,0.03845946968538627,0.10390496635561351,0.15351683037603503,-0.030086330357283735,0.08361934716264594,0.008054764156408543,-0.026551094132419344,0.005531403653507902,-0.0907779760449957,-0.010187108892966085,0.0703591990835823,-0.07132657986919508,0.05762268975355247,-0.07087282577019144,0.08076636192786373,-0.0565161251407301,0.026324103110442133,-0.05508345282194794,0.04107242192338736,-0.03644097226219652,-0.10387929804632036,0.026309920813542588,-0.01299980256543975,0.012489877693035683,-0.03083267973502058,0.07357699892680768,-0.0045331753399910696,-0.0018341788768398786,0.02938033091732147,-0.05649203160735115,0.033603658069230574,0.10109921594889017,-0.12959426924957765,0.020464163455260604,-0.006323832160517317,0.021554081183017385,0.006373159204129528,0.012209264599790279,-0.07380673355530311,0.06021769733223469,0.08989867744186564,0.04585452852098795,-0.11691099263803706,0.023395490934812076,-0.043943656145792855,-0.15430200890420523,0.08657398073556984,-0.05979634796147809,-0.10745000976776894,0.0025479864029594344,-0.041338265462433965,-0.1372811257995629,0.04614437616496511,-0.165523249226398,-0.021920402714654928,-0.03241771718408089,-0.03922602768982393,-0.09731919442962486,0.028369719138219333,-0.0419153254016803,-0.05232658240983908,-0.09331796393813614,0.1342495481438869,0.0032190140933926895,0.07657391895211571,-0.06129402403760347,0.004728620137658911,0.0407825261636701,0.18578102160661444,0.062082937571434516,-0.010686680457072387,-0.04619814748551293,-0.034304018388542676,0.07189725151306903,0.13140621515914908,0.02214801334432524,0.05005861346833599,0.1590991796956997,0.009968908593983136,0.21747246827159206,0.029758599734606945,0.037938092357343696,-0.06015878816461418
"X10",0.22702656181713965,-0.20186670558603917,-0.27553619225248,-0.056741144965496745,0.11831603448110382,-0.11003950555387981,0.10098981416613129,-0.11517903996881194,0.11436229496057855,-0.1409229202800232,-0.11634158019573423,-0.05360846368805881,0.03792597801358542,0.11892915171103842,0.1586719140544063,-0.13972188766628277,-0.035639599084454444,0.0861105031451527,-0.06086042462381572,0.023567146689599316,0.7984579782814049,-0.574603358865783,0.026726584404870603,-0.017465388437231097,0.04519416829087514,-0.0001701182472494855,0.007781777623742392,-0.09606842925333776,0.048087000929553175,-0.06238998177785291,0.26569746480848183,0.06926937564170521,0.19297490590216446,0.06721027281452194,0.09480274664940924,0.1062790536248144,-0.013861583826982663,-0.048590512006153844,-0.07221929990994379,0.07235178998342277,-0.039337975656010424,-0.049545469908123245,0.01411019665503507,-0.03738181226829382,0.06800924438801141,0.03845969354457516,0.10386523292288904,0.1534583933435014,-0.0301159155821537,0.08381235879547644,0.008043514488905619,-0.026592575674907828,0.0055207520320134686,-0.09075733658647286,-0.010147378997131924,0.07039693164190308,-0.0712472583317049,0.0576021698642848,-0.07088412842528116,0.08078288850474313,-0.056411700970534856,0.026321305462017934,-0.05507725437838325,0.041092139432640666,-0.03649234794476057,-0.10399134929263072,0.026256940632769895,-0.013096274850659556,0.012500164314818091,-0.0308455917915348,0.07356860656994418,-0.004484098462544753,-0.0018439671058987476,0.029398835841995964,-0.056491524923953464,0.03360085374928419,0.10107732624530505,-0.1296059204077879,0.02045485656122879,-0.006344697998526825,0.021569669779075193,0.006278083442049397,0.012255576941638228,-0.07379364356001494,0.060210583037219115,0.0898861434037332,0.045857204076299306,-0.11690778839196968,0.023417223092753514,-0.04394017139151032,-0.15429334654787674,0.08658604253634232,-0.05980758489205074,-0.10745239404330469,0.0025490583872114095,-0.04134335464125455,-0.1373059077975555,0.04613710794248127,-0.1654243042307576,-0.021967233553399385,-0.03245063753896504,-0.039235851105578326,-0.09730952496135539,0.028376648250472224,-0.041899625926487924,-0.052333014569683825,-0.09331696459259027,0.13424848677690682,0.0032228122203001317,0.07657780446447865,-0.06129601756753496,0.004725328583733184,0.040809486719956656,0.1857882003645045,0.06209838349689375,-0.010692979416292051,-0.04619130519335544,-0.03430657451278254,0.07194750026723651,0.13135508475688853,0.02214640158957435,0.05005106131744164,0.15910410202935973,0.009982390651004295,0.21752715247314025,0.029879633676074237,0.0377219418878744,-0.06018479934579049
"X11",0.22699109074132895,-0.2020409433563136,-0.27549604525733234,-0.056729196174635885,0.11832570852176798,-0.11014418961425042,0.10105427588707047,-0.11519272416007746,0.11463968107281285,-0.14079303009615457,-0.11621974132394078,-0.05359536880130051,0.03813861003752779,0.118876569465895,0.16096077339942114,-0.13970927883135326,-0.03562599862929485,0.0861003107877772,-0.06085213650269158,0.023566212245778657,-8.751550100944994e-05,0.013023874043773349,0.026716486160562717,-0.01756967762188591,0.045172360760753316,-0.000174242142464089,0.007671959607929948,-0.09604740615912359,0.04808006289299338,-0.06239952386876319,0.2657020705689645,0.06925870137681757,0.1929919279776742,0.06720524323434321,0.09477339244234372,0.10628431545901902,-0.013817563612059805,-0.0485874777631527,-0.07221104870112585,0.07235747908506336,-0.03934809950374321,-0.04955103215028172,0.01409975467043486,-0.03739152368235673,0.06801328150890211,0.03846139887920773,0.10391368984105426,0.15341230253265312,-0.030103355389027333,0.08381663965898771,0.008042669612380936,-0.026570593740015302,0.0054512782210823785,-0.09076852488021518,-0.010248782318133151,0.07030143215615604,-0.07128802030208563,0.05762200809897437,-0.07088647663608334,0.08078366710448827,-0.056501264643661155,0.026318856052322027,-0.05508174195824545,0.04116394207188399,-0.03642702529190432,-0.10392255626533184,0.026169935828042282,-0.01302360519519533,0.01256063017648176,-0.03085979562349893,0.07357369589939661,-0.004557776104634037,-0.0018673740387146738,0.029361283670622053,-0.056488474180249354,0.033599984764352046,0.10105376695910477,-0.12958014117078284,0.020453868604573364,-0.006320694925769737,0.0215796226722879,0.006257594140031899,0.012255769339852058,-0.07378339245649239,0.060221208880574806,0.08989867796497693,0.04586279062331952,-0.11690606819425757,0.023421997749006673,-0.04394359362684644,-0.15429543936741988,0.08657997975656115,-0.059816034549798204,-0.10744515788598724,0.0025549507459967768,-0.04133521026727794,-0.13728372069486272,0.04613435493012592,-0.16553789377115233,-0.02191848367902194,-0.032466888244532865,-0.03923368534265894,-0.09731835458586548,0.028361225579618902,-0.041897104834382616,-0.052325664517000596,-0.09330244891077456,0.13424466159696236,0.0032180224642225975,0.07656719276172486,-0.06129379174685947,0.004728506112166572,0.04084782385745642,0.185781600321448,0.06212078771852498,-0.010689243141154001,-0.04632873199694941,-0.03431414209518362,0.0719876513351569,0.13133515452883637,0.022114631187712654,0.0499573995744235,0.1588962990795937,0.002543365189669838,1.2156714774099917,0.029875579061770057,0.037930934616701065,-0.04740693036555704
"X12",0.22673183752941434,-0.20190057595456737,-0.2755512599059142,-0.05659040589980809,0.11829818698499642,-0.1097991213513982,0.10135043485423766,-0.11513910195965962,0.11460151277619357,-0.1409072982776783,0.1376549566745048,-0.05358841506829675,-0.9246213521533521,0.1220539518314536,0.16094942010158592,-0.13969847861323023,-0.03595667284799977,0.08639983598895803,-0.06073422071220074,0.02353859023333229,-9.340179584624769e-05,0.013010150411903969,0.026648754091431675,-0.017546192490380287,0.0451974302479543,-0.00015822512474309824,0.007662176675565227,-0.09606212337725095,0.04808743440696272,-0.062426561977415855,0.26576968723918154,0.0693067112222206,0.1930303061669623,0.06719863012301228,0.09479491629657168,0.10628555666902612,-0.013793085121833963,-0.048517990685024964,-0.07219940081597745,0.07235384072429246,-0.03935844265903604,-0.04955133534424614,0.014114199173422685,-0.037422032683718624,0.06801400885715819,0.0384586582699177,0.1038766943343402,0.15336196121065465,-0.030080086696595263,0.0838027979472787,0.008041269713392658,-0.026541185177507934,0.00557401276052198,-0.09078190015655745,-0.010207404493943962,0.07033898493028565,-0.07125758474751223,0.05761485705767065,-0.07087037788968453,0.08088709683795318,-0.05649199061250124,0.026322377930522993,-0.05508170059114056,0.041038243570852874,-0.03649509559586166,-0.10392977641529233,0.02628720489990058,-0.012998638165466373,0.012474456135676704,-0.030881523842710975,0.07357288749573151,-0.004546642502989798,-0.0018721682579245181,0.029393156738083133,-0.056491901396135795,0.03360274076055109,0.10105516771469197,-0.12962922498382615,0.0204461761223293,-0.006358139363714297,0.021558038114361477,0.006269013189116859,0.01226782055450836,-0.07380163324196719,0.06021101424944521,0.08989275642434003,0.04585431582858325,-0.1169092133403867,0.02339603943173908,-0.04394413917552336,-0.15430184096124888,0.08657489996298143,-0.05977114173604467,-0.10744138226267957,0.0025502253503431583,-0.0413347505526099,-0.13727523917043402,0.04614335530897968,-0.16555800905716636,-0.021926303570633986,-0.03242736438818601,-0.03924501917985469,-0.09732407365616123,0.028380219393553712,-0.04192758440365759,-0.05234214039902401,-0.09332293232369343,0.1342517214912876,0.003223430423528678,0.0765648728667277,-0.061289165346786044,0.004732386629654303,0.04084054705648342,0.18580689459926142,0.0620697890823862,-0.010699513876790702,-0.04619542492891588,-0.03426335177347014,0.07192628359315645,0.1312650128996196,0.02212640574150025,0.05003795813427347,0.1591131048998704,0.00996696159102446,0.21743745586230856,0.029890468767882077,0.0379906628497559,-0.060183386262193175
"X13",0.22680343208392276,-0.20187313513756086,-0.27559152848667695,-0.056740218427453526,0.1183911587469819,-0.10991670301302264,0.10099967088873335,-0.1153327060054072,0.11434130787200009,-0.14103004254935772,-0.11650774923985108,-0.053850162796927045,0.14649606334594686,1.1113925387230268,0.1607330280532418,-0.13975774730961774,-0.03561584357221865,0.08609607685780207,-0.06084636416893569,0.02358579060710844,-9.967735642035397e-05,0.01301061719695624,0.02667086930292504,-0.01753510536645177,0.04517130431555473,-0.00015628462337710866,0.007681640102315181,-0.09602785404343338,0.048080784394606536,-0.062388276505321194,0.26556191825346687,0.06930857817314165,0.1929343773603963,0.06721357627558948,0.09481184435175374,0.10626965015300616,-0.013815829377566723,-0.04856847686307224,-0.07220704551572162,0.0723517501967644,-0.03934916903771067,-0.04953953198911911,0.01410835715458284,-0.03741036033834766,0.06800711557659521,0.03846114760875804,0.10388520817102206,0.15342848000479703,-0.03010516875924771,0.08379759068532595,0.008025315900027247,-0.02666082422748596,0.005554232923485558,-0.0907765200930646,-0.01023364648892996,0.07038514193498027,-0.07131503962686445,0.05760850260501139,-0.07088560989619896,0.08081485066502968,-0.056456879989203006,0.026315777747730328,-0.055076703600081205,0.041219467511862715,-0.03656075128066542,-0.10382669397202542,0.026184216369466305,-0.01304053345543425,0.012488898099189098,-0.030873616914584078,0.07357061535473605,-0.00452759853485249,-0.0018896245641066337,0.02936074078683153,-0.05648806760072231,0.03359748357116253,0.10109807954018481,-0.12956694366203164,0.020480998036345278,-0.006357445766461475,0.02156244533355687,0.0062684456520628075,0.012250935890252314,-0.07377849711101082,0.06022185493814409,0.08988290741469068,0.04584500981940593,-0.11689829616468395,0.023396091326167597,-0.04393775397006048,-0.1542912867183427,0.08657594320801816,-0.059787636239068444,-0.10742849261743606,0.0025554554271380097,-0.041347842124357624,-0.13730739225186395,0.046148525715751454,-0.1655211133331508,-0.021920825947876404,-0.032449694000378566,-0.03923116359562034,-0.09731230663316394,0.028367024150082472,-0.04191558969249689,-0.05231969446375897,-0.09330290597236533,0.1342224692581132,0.003232412771188057,0.07655711618412858,-0.06128453987971662,0.004725720229029398,0.040820939591362244,0.1857532239451045,0.06210317123960582,-0.010698176194071488,-0.046197916276102834,-0.03432402035299385,0.07189744977168029,0.13135820503234083,0.02215388198683195,0.0500656682615505,0.15908726388155445,0.009962963066128927,0.21754413975466347,0.02979829758312163,0.03792488155447442,-0.060159200010350834
"X14",0.22713707355962262,-0.20188585110027904,-0.27556988564923907,-0.05677529126125529,0.11830784431640315,-0.11011495751694647,0.10098507876858653,-0.11510726113125923,0.11461862386480716,-0.1410023558156665,-0.11631711541617933,-0.053660713948600544,0.03777942275528384,0.118897393929491,0.1608943478033932,-0.13970865460950932,-0.0356412614451114,0.08610224563375428,-0.060854138157420856,0.023549833628410625,-0.00010269220794300935,0.013016904882363874,0.026712839900664104,-0.017562507374070314,0.04516428014064512,-0.00016720273095241454,0.007675920783565949,-0.09606538026311935,0.048072256164164044,-0.06237959936799704,0.26569334871680655,0.0692903128501077,0.19299734840410507,0.06722899232708075,0.09480372372930328,0.10628514033531766,-0.01386550043808636,-0.04856937527437393,-0.07221588143583894,0.0723599873842426,-0.039351998879817225,-0.049555083674658953,0.014107548037533588,-0.037388235550512766,0.06800874832003563,0.0384726081473741,0.10385905064791667,0.15344785431852676,-0.03010698856393326,0.08381786795524125,0.008052884942752024,-0.02658072318738324,0.005577779661028114,-0.09077111207103013,-0.010205138860416787,0.07036663244630226,-0.07130911550087492,0.057620031617983083,-0.07088929188710942,0.08082109126510657,-0.05646347727665146,0.026316841062802923,-0.05508455343850842,0.04121439254007531,-0.03641572258726096,-0.10392172329565334,0.026174258487629054,-0.013047775231417742,0.012541484345153892,-0.030880764275232068,0.07357417716689128,-0.004492907569042554,-0.0018207358266105606,0.029336459713218875,-0.05649539498321311,0.0336028375762265,0.10107517780207713,-0.12958198986499195,0.020477929507843,-0.006341007392875186,0.021587312040070146,0.006270896613144155,0.01225625110498529,-0.07380016949822554,0.060219512015992085,0.08989689225272252,0.04586051830796995,-0.11691096007916872,0.023411197411450813,-0.04394469214993882,-0.15430227372803565,0.08657603476269282,-0.05980148602754171,-0.10744606031882828,0.0025498982266075206,-0.04134140035925337,-0.13730874349979874,0.04611687528569771,-0.16548056027674216,-0.021931712573283434,-0.03243519279506712,-0.039236930347416446,-0.09731769583316019,0.02837204449900154,-0.04192204442736143,-0.05232013702642014,-0.09331756113948936,0.13424034812634686,0.0032227362862625756,0.07658256422472723,-0.061295442520961314,0.004862608136729742,0.04093451179061034,0.1857823610108259,0.06208746776706895,-0.010690841556165039,-0.046098338961867505,-0.03431078731697936,0.0719172126987581,0.13079725574735768,-0.9506858566429723,0.050070467539342946,0.15911286294468827,0.009950308702061216,0.4398467473855014,0.02988342565953903,0.03795028714256529,-0.060166890986600476
"X15",0.22685639561039875,-0.20169589040401442,-0.27552269667388873,-0.05668529535096755,0.11830500281487841,-0.11008955654348558,0.10102320760516761,-0.11517335593523942,0.11465432105057653,-0.1408282532188715,-0.11639462190327209,-0.05353972793181806,0.03812198328246463,0.11891845591678897,0.16090833140156907,-0.13967947702277586,-0.035635071013510704,0.0861174974175123,-0.06085465342215239,0.023567362369659787,-0.0001019267725325101,0.012996783462199466,0.02667270517400745,-0.01757312209508119,0.04520387054922697,-0.00015071386474160798,0.007664231335769701,-0.09606027447751438,0.04810329202640669,-0.062424667339388014,0.26572383233923885,0.06926283603069164,0.19302772660830234,0.06719257166864623,0.0948274521568609,0.10628632197455015,-0.013864170344820795,-0.04859618933389845,-0.07223077068479436,0.07235841776970792,-0.03933780987000025,-0.04954501711522082,0.014105695146362372,-0.037428045807028326,0.06800636413825836,0.03846387495535998,0.10385814116863598,0.15353601036150313,-0.030127905058682403,0.08380170152811763,0.007977552473085197,-0.026539047329384908,0.005509094061125119,-0.09075377297237941,-0.0102038904618174,0.07034239243836726,-0.07124481308682222,0.05760179691843336,-0.07085884739882692,0.08082300188058415,-0.056563836790001425,0.026322268228982804,-0.05507471402584744,0.041057642686951876,-0.03638266296295222,-0.10395497810436022,0.026161432070016418,-0.013026755006069334,0.012486691741814519,-0.030870732149491573,0.07357304947545724,-0.004502512855002619,-0.00175899529719802,0.029309418173063734,-0.05649462886857956,0.033603784031023626,0.10107746047900953,-0.12957934466394322,0.020439903147268356,-0.006350963000783171,0.02155198139025863,0.006250620380452389,0.012240569340613365,-0.073781509063708,0.06022210200683707,0.08989579570618773,0.04585458501508292,-0.11690826651060104,0.023414961031954104,-0.04393993773765542,-0.15429669340829025,0.0865721179254064,-0.05980894425683261,-0.10743670166092043,0.002546399918797633,-0.041333314233393155,-0.13729872081109284,0.046156066334775175,-0.16551346794416882,-0.021897696878610873,-0.03246043809320046,-0.03923341507347859,-0.09731213117415238,0.028368434440636362,-0.04188556705866186,-0.052333580351623166,-0.0933136914114815,0.13424568904428022,0.003234819325198162,0.07656351175267523,-0.06129797153256777,0.004723013905076997,0.04112317337062646,0.18626780228952403,0.2824565380126426,-0.010700478646959374,-0.0461961551025973,-1.0028145772752508,0.07555935485086156,0.13065213556088234,0.022420038732323677,0.05005277395486079,0.15938055984342114,0.0097118715546189,0.21752080815889469,0.029889458363326578,0.03803213101032786,-0.060287597294782454
"X16",0.22681014036045638,-0.20187781337325897,-0.2754984213917751,-0.05669444544152638,0.11829371070999573,-0.10653477170409599,0.10103866490123929,-0.11514643832798975,0.1146722129270972,0.8554524594128565,-0.1164590153843431,-0.039846256935735715,0.037362568106045796,0.11883909024850547,0.16085355934012197,-0.13967968687678858,-0.03573903366202335,0.08611261723201027,-0.06085860923630647,0.023591829940844505,-0.00011673356515518694,0.013038344775020106,0.026667600009276052,-0.017523527802219812,0.0452103802891608,-0.00015839625689915843,0.007661916703216637,-0.09604624424117238,0.048078083220510534,-0.06240442365391505,0.26571391006453904,0.0693068693008899,0.19299704192620665,0.0672268708892023,0.0947798664759057,0.10628078751214984,-0.013863193202869635,-0.04856326332667898,-0.0721936524370667,0.07235838539317811,-0.03936045584319239,-0.049545103529538115,0.014111299180061576,-0.037393165933392244,0.06802330858466092,0.03846501675814366,0.10389613248114782,0.15346052029392712,-0.030159611713235432,0.08381020312066556,0.008060702870462932,-0.026517521726612772,0.005514168085477602,-0.09077964161479302,-0.010272995111623825,0.0703370917582428,-0.07122158258933232,0.05760159760140351,-0.07087227514888855,0.08087236550565965,-0.05647935853880459,0.026314319452955107,-0.055084166405109644,0.04118797283663109,-0.036418549828854264,-0.10399629282500807,0.02628884566245217,-0.013011195659778924,0.012502882980194993,-0.030907695764940946,0.0735746319060656,-0.0045278773213985124,-0.0018170110773321191,0.02937396702882515,-0.05649412108570551,0.03360298228072866,0.10105077352262491,-0.1296279737192871,0.020432545702817835,-0.006307041805216325,0.02158596919463146,0.006253661897809606,0.01223541895574669,-0.07377248684429197,0.060216341722487826,0.08988783488433559,0.04585376026395303,-0.11691275256326211,0.023392038779029893,-0.04394302318121307,-0.15430525857888183,0.0865723837211939,-0.05980655136506554,-0.10745456387473724,0.002544554678912712,-0.041341297941436254,-0.13726712642100716,0.0460903870247916,-0.16551200154132797,-0.021924213870017348,-0.03242119693748126,-0.0392320786973344,-0.09732336787740264,0.028366481629244742,-0.04191364676911065,-0.05234075112716454,-0.09331865739243492,0.13424842035992107,0.003207747889340644,0.0765910068578334,-0.061301956996339446,0.004734953095206278,0.040819099628872244,0.18580302870920998,0.062075544235653375,-0.010693906474701285,-0.046193689515974884,-0.03429034586809585,0.07186093996970645,0.13132334825274117,0.02218142561107804,0.050050211301710466,0.15912111012778457,0.010148162982843607,0.21746970404388138,0.02987324700608582,0.037940151331682735,-0.06018661522523189
"X17",1.2172737486878062,-0.20194549664683253,-0.22732649123895243,-0.05844880382693083,0.11797711275866749,-0.11020694887779627,0.10103644739395964,-0.1152007774984028,0.11455619632499257,-0.14038583431258272,-0.115988780561779,-0.05351284637082153,0.03811742568928722,0.11888985701825562,0.16049240626679873,-0.13972793661673677,-0.03563241970135725,0.08608203152723688,-0.06086608029976838,0.02357264593829234,-0.00010886127748101003,0.013026665283782518,0.02663929253204005,-0.01753402886562284,0.04519822510237527,-0.00015665500314275362,0.007671254407986213,-0.09604602478199674,0.04809208881490476,-0.062359462064727325,0.26577813295775365,0.06929794006528173,0.19305892424144916,0.06719461997671315,0.09478477860294769,0.10628142098081421,-0.0141242140564379,-0.04856540225556085,-0.07218324583162651,0.07234865938806806,-0.03934165938114614,-0.04954223458034739,0.014102463677391333,-0.037399917823227456,0.06801164851381993,0.03846425613704681,0.10394153503968283,0.1534016129364076,-0.030134455151502284,0.08380233099676483,0.00806450780032605,-0.026495620433064814,0.005501866307515317,-0.0906495179417946,-0.01020799180235955,0.07043241489770834,-0.07126711671709257,0.05761118972242785,-0.07075848508665714,0.08078381779181108,-0.05645227777811197,0.026316624401646442,-0.05507667150343817,0.041120306990480235,-0.03654140990790403,-0.10391982215317892,0.026146293925337273,-0.013051162553588,0.01253802412064432,-0.030733362893209295,0.07356760856723618,-0.0044903880231168085,-0.0018142060899305613,0.029305418806952133,-0.05648665963503669,0.03359802325736387,0.10104659650149679,-0.12959453541011906,0.020460174925652524,-0.00633942257606659,0.021562304798354463,0.006282126600016667,0.012265781706611807,-0.0737827491687918,0.06022253630822683,0.08989096649222965,0.04585142670969479,-0.11690185662794876,0.023399918845101255,-0.04393748512873961,-0.1542894392627267,0.08657127829323906,-0.05978579425603912,-0.10743781260764192,0.002555483077769803,-0.041345712723305006,-0.13729987154833395,0.046118370751187916,-0.16549209748842472,-0.0219286030262883,-0.03242455757422285,-0.039246158613408855,-0.09730739774782919,0.028355348655157347,-0.04192291626268716,-0.05232613276751877,-0.09331067957706501,0.13424420823381178,0.0032262207886014057,0.07657342963880633,-0.06128947124383389,0.004730871432704855,0.04082384031437825,0.18578458405925538,0.06208058061711011,-0.010701961418369649,-0.04619640483817381,-0.034287735568229796,0.0719624459301562,0.13132890740921654,0.022160748459367958,0.050051591386032435,0.15911155158510606,0.009966242960862098,0.21743732950942093,0.02996340548620402,0.03792565114712846,-0.060172057051321205
"X18",0.2267683046758044,-0.20197603599520253,-0.2754868647861852,-0.056607389654094606,0.11839206222802409,-0.110167228772236,0.10100093693416697,-0.11516318029042245,0.11460076420001629,-0.1408291805515632,-0.11633127082137444,-0.05351294170586817,0.03814767348171898,0.1188010920807974,0.16055395449518559,-0.13973868265995804,-0.03562476500820436,0.08608158173855576,-0.06084085050144321,0.023563324552663068,-7.012579539707333e-05,0.013004675294167852,0.026663184283643317,-0.017560112745288802,0.0451546020613802,-0.0001702745584470838,0.007675684053505532,-0.0960377288075052,0.04807110020731686,-0.06238805663796659,0.2656379618862715,0.06926471476289428,0.19297154503991132,0.06722001441833941,0.09482043771603053,0.10627679036125658,-0.013813438433170119,-0.04857070857002452,-0.07221870812303605,0.07234835016827623,-0.039348346372826526,-0.04954283235527318,0.01410168780022419,-0.03745721340139271,0.06800741380118269,0.038474662043287415,0.10387263778155717,0.1534362972276794,-0.030156289660804053,0.08380685878251423,0.008022277851683884,-0.02661055825031302,0.005575461500712424,-0.09076379427496317,-0.01020727912196373,0.07040065777793857,-0.07125709990963634,0.05762072278179544,-0.07087056204157755,0.08091191322485025,-0.05645924977016833,0.026320492951695494,-0.05508156358010354,0.04111167247846554,-0.03649712449659166,-0.10381997452044876,0.026212000716393454,-0.01309754066274973,0.012419454758649369,-0.03086389628027658,0.07356652197063286,-0.0045557983505994755,-0.001817066855768613,0.02932495284111615,-0.05648668050623966,0.03360096649373505,0.1010502505390391,-0.1295828476056129,0.020459173692281455,-0.006302490683768935,0.021571496290682453,0.006275628929440909,0.012262077778122802,-0.07377692723540417,0.06020522954358633,0.08988807888901612,0.045847476438044786,-0.11690306185045361,0.023404936637647235,-0.043941443406693995,-0.1542947516559199,0.0865768428084234,-0.05981342944793552,-0.10743634105158167,0.0025459018432079407,-0.041304271253835345,-0.13728949205866417,0.046186935980830596,-0.16558004807005428,-0.021912562849392674,-0.03245008440136789,-0.03922915774625821,-0.09731427308015601,0.02837817756630096,-0.041917429243057754,-0.05232455239078831,-0.09330546784579795,0.13423959027357996,0.0031134458231880536,0.07655164894539818,-0.06129323433197502,0.004811408729050521,0.009641193788924154,-0.8121362200488509,0.06031568087356137,-0.010696596261292636,-0.046195782966401276,-0.03433723072841589,0.07192220006487308,0.13135404598872905,0.022133489969023982,0.050056719983110516,0.15911027639115916,0.0099627222777658,0.21754859182276243,0.02993308622320993,0.037677841944573486,-0.060186062872230564
"X19",0.22667978690836665,-0.20203109539191244,-0.2755180706680725,-0.05672430927209165,0.11830041042291704,-0.1099941534665389,0.10098307394951836,-0.11523880614946344,0.11466846126957514,-0.1408766149372971,-0.1164248771193981,-0.05352004465873641,0.03810166924660215,0.11894752073315236,0.16090135518687554,-0.13969518427183247,-0.03562820995031992,0.08609998491445894,-0.060852325201289165,0.023556967279366427,-5.60705315181069e-05,0.013063114302885521,0.02661916705520139,-0.01752819544153523,0.04516763889013657,-0.00016707959519473976,0.007682902190015491,-0.09603844217295489,0.048063686552461175,-0.06245117676505253,0.2657392430729533,0.06948388371403777,0.1929572155001057,0.06719779030249766,0.09482269843530067,0.10628394265178212,-0.01386888211705893,-0.04859060391760143,-0.07218024084590488,0.07236134821494807,-0.03935831554815259,-0.04955216133011478,0.014099974857269847,-0.037430300247519574,0.06802629096879052,0.03847189982252061,0.103874136784648,0.15343041211682779,-0.030055283319122786,0.08381040747894479,0.008065909832734426,-0.02652664606836286,0.005434526745423962,-0.09048370579216525,-0.010170737436976914,0.07042281665518524,-0.07132278597830381,0.05762223974025596,-0.07087613745585455,0.08086882254598106,-0.056477517523483935,0.026321663022990903,-0.05508578984476227,0.041195849662165766,-0.036546687605109325,-0.10397022435381302,0.02617509404841677,-0.013039026159743576,0.01252775568797655,-0.030872912140027974,0.07357752226539425,-0.004544627480710353,-0.001847311968299145,0.029385459076365614,-0.05649452737518397,0.03360091903081853,0.10108177028477316,-0.12959361155423177,0.020631902597915384,-0.006311841614533154,0.02154637857621777,0.006072269774331723,0.012272104759885926,-0.07378809871347167,0.060184770926447126,0.09018379414189412,0.0458497329956814,-0.11691103680868863,0.022814413678420093,-0.04394310465431124,-0.1542994662009958,0.08427257368717048,-1.0517341897394836,-0.10744750854780172,0.0025452904537223518,-0.04133617544308125,-0.05579561328896079,0.046105312642013584,-0.16554977809930413,-0.021988429958692806,-0.03245342314069379,-0.0393933228272805,-0.09732029006398946,0.02835979814700211,-0.041907428064491103,-0.052117019900325995,-0.09331189164039823,0.1342537561439398,0.003371114314822959,0.07658906388383181,-0.06129187677219393,0.004734632928005771,0.04081768336738525,0.18578134647781652,0.06210514661319391,-0.010690300811551654,-0.04620098545101176,-0.03433839843999783,0.0719090869563141,0.13134812738966054,0.022139957222199,0.05006481473227802,0.15910767459666414,0.009991011123668589,0.21750024956797,0.029893137262389822,0.03790936523481964,-0.05998007174870287
"X20",0.2267679965915624,-0.7957517349479224,-0.2754110092092669,0.6145863818745185,0.11828961078557092,-0.11018453615900713,0.1011132400205435,-0.0722566143854839,0.11490125850945294,-0.14541054402462703,-0.11666915792466655,-0.05351052576627796,0.03990975149277377,0.11903067172667418,0.15972552736277168,-0.13975269957937925,-0.03566581779507943,0.08691395367591086,-0.06083648957899545,0.02356090093621165,-0.00010853715643687534,0.013165173122715472,0.026616412790718108,-0.017500388212363313,0.045035456023944466,-0.0001793587668379835,0.007601796842678744,-0.09610871092110732,0.048144191859060666,-0.06234776442697643,0.26571057456786745,0.06934689055110203,0.1930325507032833,0.06718565123825516,0.09482826095698478,0.1062970898087441,-0.013807166320112606,-0.04852299070706049,-0.07219974815997339,0.07235861036868418,-0.039377406712564775,-0.04955396351122903,0.014106216775079781,-0.03749440210611388,0.06802063631373902,0.03846493840309024,0.10375288903074466,0.1535322236279063,-0.03016376183664354,0.08382149859169859,0.007989609210565034,-0.026585315138981623,0.005533969583623987,-0.0907748436782216,-0.010199080494832218,0.07024876684420853,-0.07111715155716827,0.057621546023116296,-0.07087731659816247,0.08083251782803595,-0.056519275814224876,0.026321634613847365,-0.055087963284022275,0.04134978117123436,-0.036603653132711196,-0.10395248704343048,0.026246245194103346,-0.013002142158792314,0.012459371089584214,-0.030863744751683183,0.07358252468810848,-0.004503190705979664,-0.001769036767304217,0.029353612042249556,-0.05649599322506571,0.033588749716724674,0.10102976123780533,-0.12964144326127053,0.020475623734334373,-0.006687275597599984,0.021572965382606012,0.006276300086201719,0.01225373688582229,-0.07379446372631078,0.06021432805965816,0.08990954764378525,0.045858876993389856,-0.11692076792640461,0.02342848695489051,-0.04395073141101713,-0.15431027267209146,0.08657647301101229,-0.05976006726334326,-0.10745121845151405,0.0025574759060298644,-0.041349577522464744,-0.13720847292298238,0.04600433349342577,-0.16540587429029782,-0.02192847147373254,-0.032410556483388274,-0.039239643679654594,-0.09733041067253012,0.028408833190211067,-0.04193565631391053,-0.052342771637802016,-0.09333165200996495,0.13425637228610526,0.003215704759344124,0.0765936104442921,-0.06129554501237067,0.004742127151644422,0.04086168547912381,0.1858236073184638,0.06206751543172454,-0.010699462785602513,-0.0461976849182401,-0.03433136214767488,0.07184791449200487,0.13127206596836757,0.022132656226437286,0.05006507740644461,0.15912176042620021,0.009823859208316613,0.21748767642899988,0.02988118013623178,0.03794505733830368,-0.06018406579835209
"X21",0.2267670529967956,-0.20198164765198195,-0.27548140384803177,-0.056553504169125995,0.11836898983909239,-0.11007793735256018,-0.8922025193880596,-0.115116219426715,0.0018310017384095894,-0.14094482174612039,-0.11655106962533093,-0.05361163334683228,0.0380796861927195,0.11881715767411083,0.1608817284514142,-0.13969036364590012,-0.03565048247606132,0.08608698701190726,-0.060867874909466504,0.023553998959596634,-3.2122295882926235e-05,0.013130430930938916,0.02657517716431945,-0.01745826612416855,0.04519057447021418,-0.00016378651310254802,0.007639555781167365,-0.09606771796611638,0.048076683040447286,-0.06241305643690389,0.26581425936621933,0.06920947452221785,0.19304694601203182,0.06721220993691679,0.09476837973645959,0.1062966157258696,-0.013833425237185107,-0.04861714377198107,-0.07219305311556005,0.07236334399268786,-0.039360954103129814,-0.04955923783559436,0.014101602998005789,-0.037446776303524,0.06801586779391929,0.03846907319921932,0.10387475612896828,0.15344935839152268,-0.030084569059639337,0.08381233917822639,0.008077245474241589,-0.02670481865761919,0.005591313156095429,-0.09076432624933933,-0.010086138491262477,0.07041459526622769,-0.071414954254863,0.05764249249043825,-0.07087973110224723,0.08078577988355524,-0.056541778726432707,0.02631609462790283,-0.05508733361036949,0.04122406180099999,-0.03637266920796683,-0.10393732959022284,0.026219130172137974,-0.013136710019529641,0.012586667760349628,-0.030872362092045646,0.07358313325028809,-0.004546640622301294,-0.0018616217436365377,0.029344952089761463,-0.05649536002578527,0.03360340236851607,0.1010752445870646,-0.1296063077314105,0.020462646042145285,-0.006293746914190263,0.021576290632281454,0.006284457701399461,0.012237441923892072,-0.07378596583738271,0.060214294581804315,0.08989642598670704,0.045857002585572,-0.11691323338582288,0.02337679254882999,-0.04394590970115583,-0.154297912222664,0.08657416498607724,-0.059795141079560465,-0.10744748303239507,0.0025596078429276337,-0.04136173495200066,-0.1371552253626495,0.04607115247043411,-0.1656164935977137,-0.021956810356804645,-0.03237443457402312,-0.039241890419130857,-0.09732470226441953,0.028369490729785743,-0.041936803084844064,-0.05233414698175477,-0.09331936064386469,0.1342639124739624,0.003218411035775122,0.07661254690320318,-0.06129105884834273,0.0047320005994053475,0.040784133010696395,0.18579306605927579,0.06202999741375407,-0.010689735608868742,-0.04620116231136869,-0.0342815365405086,0.07184050171317592,0.13136547098728205,0.022157325344614325,0.05005473477408571,0.1591220463202376,0.009916426029732469,0.21754477597429786,0.02999986822181349,0.03792052402635248,-0.059974425291877076
"X22",0.22650883226006271,-0.20197324477547232,-0.27553960921136034,-0.05677443624442386,0.11750465113182931,-0.10907864048917525,0.10111607156219195,-0.11527583903994722,0.11469161541358676,-0.1404146580088581,-0.11581706261635802,-0.0532353670989211,0.038103927967229195,0.11911052531648601,0.16102400879105058,-0.13981922960971258,-0.035660127436727425,0.08620934558835547,-0.06083998738918149,0.023580264133162505,-7.815582345612632e-05,0.01300988613988671,0.02662090662340344,-0.01753517691237531,0.045194177043114736,-0.00016969953037107807,0.007659661872408932,-0.09613950538382424,0.04810579997527506,-0.062445558446641826,0.26604042213769324,0.06934806168925463,0.19317048713084642,0.06724802075847121,0.09489220223502386,0.10635877302347699,-0.013808921747487515,-0.048562536633902996,-0.0722309609984619,0.07240971651606855,-0.03939292020735791,-0.04958283968043361,0.014110723291203914,-0.0374632107001765,0.06806575161260314,0.03849355276614437,0.10386240788960398,0.1536172834352863,-0.030206839128694256,0.08387352609647822,0.008047191436492037,-0.026443788054379923,0.00536505640045188,-0.09084188655497097,-0.010390054955905975,0.07053690400230857,-0.07153014287116481,0.05766280965514133,-0.07092815225920748,0.08085444323282097,-0.056672486532376797,0.026341152390496968,-0.05512410396806743,0.04129577247112151,-0.03659648451209887,-0.10408926820034108,0.026235974894122976,-0.013034689442214104,0.012617350457661637,-0.030713079376555222,0.07363035001851108,-0.004421969259636816,-0.0018270045226852908,0.029369689483242162,-0.05653615849725216,0.03362584269730424,0.10109404946378044,-0.12974433469581886,0.02051760097173478,-0.006322546304776452,0.021574313556236582,0.006278614125976918,0.01226512130237214,-0.07383339279654756,0.06024797356015394,0.0899520804263368,0.045889990432901345,-0.1169947490225196,0.023425874639254104,-0.04397452855313968,-0.15440929551530727,0.08665629206979418,-0.05985586358716243,-0.10753706632384152,0.0025492972197890735,-0.04135869894557454,-0.13744039352670534,0.046164821385095346,-0.16550719583360762,-0.02192199907156523,-0.03244355679077977,-0.03926766793471774,-0.09738466234427162,0.028410869181510548,-0.04192347229807772,-0.052357812827853706,-0.09338654544240528,0.13435074979762784,0.003217653302977392,0.0766329645959423,-0.06134542412132014,0.004726404408086728,0.040617011208327475,0.18590965256467362,0.06187841765104677,-0.010904389356798995,-0.04623878264531933,-0.03430633260717273,0.0717426203267328,0.3562287959232045,0.02238068894891754,1.0222313837041508,0.1592797810739265,0.010428252123436019,0.21651464813001567,0.029147724106149225,0.03771469084434749,-0.06005245312313087
"X23",0.22682527017977036,-0.20186708644604198,-0.27567981845122846,-0.056563826361094235,0.11835639531109494,-0.11043809569652663,0.10098164232858495,-0.11509753254474486,0.11471922322191525,-0.1408766491276853,-0.11636231213265,-0.053566580449766685,0.03808407345425977,0.11884549774056272,0.16086733263818453,-0.13970026002005667,-0.03564830021426657,0.0861125976988183,-0.06084295603061714,0.023567285238249813,-0.00014599061183337645,0.012990021613027697,0.026706245914259887,-0.017520848690825562,0.045175700964736706,-0.00016327653121881607,0.007681407747337383,-0.09604854203931762,0.04811448033087373,-0.062354712582515105,0.26576694504178794,0.06924440363334489,0.19300781742311673,0.06721100958670022,0.09477357540837048,0.10627794894267358,-0.0137937306214867,-0.04853868571131347,-0.07221488203984804,0.07217049957530773,-0.03934754409333715,-0.049545812695703774,0.014231219102890024,-0.03742173867304998,0.06802021216951,0.03845953997969191,0.10384392576273886,0.15342122584220513,-0.030104949913403782,0.08381354513652622,0.00801844712543323,-0.026665791720584253,0.00552171690732207,-0.09077907033682271,-0.010203784512163729,0.07033403592350966,-0.07135246650083985,0.05762610319189581,-0.07087325053729547,0.08080374066931227,-0.056511527990767106,0.02632692189700704,-0.05508291560032008,0.04107880767527292,-0.036444834035424374,-0.10386910450022041,0.0262658178174763,-0.013050492414629754,0.012519724882172692,-0.03075088434204366,0.07359582342312533,-0.004556909224506753,-0.0018159109243811983,0.029317965368140225,-0.05649098010114732,0.033603985658257174,0.1010170612601119,-0.12959650838764014,0.020473906805722992,-0.006367582219749894,0.021566852330528664,0.006182295895825974,0.012262130453537468,-0.07378981963160716,0.06022262447281114,0.08989729795710681,0.04585626363552901,-0.11691077500216202,0.02339441316123459,-0.04403389238923942,-0.15424489700844726,0.08650208998483257,-0.059796985664148546,-0.10745721150059165,0.00264181644634149,-0.041420305667188094,-0.1365365599508349,0.04608435578388624,0.5926083190651797,0.6242615682793774,-0.03243231117208599,-0.03937255248688968,-0.09738173612224643,0.02849644095647789,-0.04191726269428557,-0.05233615119413397,-0.09331401648718211,0.13423696350327777,0.0033178264399081237,0.07657728286387167,-0.06128959334298449,0.004720834453165114,0.04080255243992314,0.1857867276925814,0.06209432842138623,-0.010686446500574062,-0.04619762202179272,-0.03431423027433637,0.0718868597614719,0.13134277373778588,0.022122267641563286,0.050047171886357565,0.1591316441418355,0.00992774672842672,0.21749384215563664,0.02993618665924757,0.038097889561185164,-0.06014746934617204
"X24",0.2266327158303689,-0.20204948950809123,-0.27569336651956694,-0.05659780891529281,0.11830609847261991,-0.11004438088718248,0.1010255146604544,-0.11517094983561532,0.11471730611885275,-0.14073052230573818,-0.11617307754598959,-0.053502740386861834,0.03808129975377237,0.11882054614035475,0.16095878939447067,-0.13972421237977523,-0.03562908954939427,0.08611186640654694,-0.06086099880904389,0.023571980186420354,-7.863431531267448e-05,0.013016074120264988,0.02663750648722351,-0.017549369616552193,0.04517308257241696,-0.00015807791307423003,0.007662683223303955,-0.09606578349661493,0.04810126838300169,-0.06235725028767033,0.26576802745586314,0.06925958333779537,0.1929739410279371,0.06720897521144635,0.09477646464725296,0.1062713914927271,-0.013812648337168235,-0.048568288943687796,-0.07218543236983638,0.07235599453216225,-0.039346957704771986,-0.04955370831072629,0.014102212593544026,-0.037357120544607374,0.06801064078266675,0.03845604742079252,0.10388638850109473,0.15346903589498997,-0.03014687446068888,0.08381211758333093,0.008014592985656424,-0.026523238333863396,0.005493705071317003,-0.09077092569012385,-0.010206663070561168,0.07024576796339506,-0.07124010141877773,0.05751741080350126,-0.07101383672789215,0.08089825207841628,-0.05650793569722075,0.02631354934199215,-0.05508256269177311,0.04118482221603993,-0.036494585143263446,-0.10390591623398106,0.026203202188481742,-0.013028347748859125,0.012470919783761055,-0.03136573456766003,0.07357081089005095,-0.004541393069458403,-0.0018668809263287646,0.02935974416925966,-0.056491166802307875,0.03359929592779675,0.10065534485070794,-0.12960052338222094,0.020192210429995867,0.7437587136533654,0.021583713183076805,0.006267139056159028,0.012238942578047526,-0.07377188559931022,0.060217981879316006,0.08989269906525914,0.045859007687423056,-0.11690514737125154,0.6774449269250205,-0.04394288353995547,-0.15430229014912944,0.08657591594690246,-0.05978813062725274,-0.10744612872698527,0.0025457768292379453,-0.04131974992648831,-0.13725556237812933,0.04614120849416042,-0.16549223361295584,-0.021919818820121523,-0.03245528867952864,-0.03933394942440968,-0.09731474153972572,0.028528404981003036,-0.04191428292652867,-0.052222487535405655,-0.09331462059153124,0.1342382279295062,0.003232769889601852,0.07655654938714444,-0.06129325077507108,0.004728378862810706,0.04084165831851785,0.18577493314584825,0.06210039158359352,-0.01069738974269995,-0.04620096037153463,-0.03428585242864408,0.07193903674657294,0.13131329892483679,0.022118074259858244,0.05006322407358392,0.15910361416485097,0.009925969131447582,0.21746484801269814,0.02989917407335872,0.037916618761327986,-0.06032928965996985
"X25",0.22686600464062542,-0.2019408727993965,-0.2756226345521116,-0.05664535578845528,0.11828924819336781,-0.11012709210368464,0.10102868634739881,-0.11520840936391924,0.11478600706200094,-0.1409287534047822,-0.11639375958574255,-0.05356622108311591,0.038070351997369176,0.11887770927199144,0.1607820690767407,-0.13954613651855718,-0.03564771034090246,0.08608369160787029,-0.06102045678586837,0.023605469077845404,-0.0024037175284661203,0.01302545943165745,-0.3441214129664793,-0.9275633355780075,0.04547730739671897,-0.0001711640539879962,0.007679946289699824,-0.09605451315867979,0.04810490978520678,-0.062399417526586516,0.26579569125375757,0.06920210686206756,0.19293165905951165,0.06720999695217092,0.09476242067901264,0.10627641968493377,-0.013827818542478023,-0.04858942169285148,-0.07220429299881065,0.07234954270852377,-0.03934333611007008,-0.04954697422072658,0.014101386526781707,-0.03737139883255497,0.06800719344237342,0.03847357828070452,0.10386057410305413,0.15350742456714464,-0.030147374754518418,0.08380868531670806,0.008024200956499574,-0.026594491240672122,0.00555517906492143,-0.09076679908196154,-0.010173796302472466,0.07031517889843927,-0.07131238988217697,0.057619245451338605,-0.07087170863186826,0.08082331835003825,-0.05654751426737164,0.026312454757244457,-0.05507957088645146,0.04111562490588011,-0.03658062365269807,-0.10386862023759527,0.02622759657689622,-0.013035059589061634,0.012435282710541342,-0.03084288364069849,0.07356979076008599,-0.0045395647974638435,-0.0018691648466333546,0.02937978999553482,-0.056484345018663985,0.03360119603031007,0.10106252580450394,-0.12958984293616063,0.02045127649685113,-0.006336724893970573,0.021586785113948712,0.006290348776440962,0.012258593328764956,-0.07378144712262555,0.060213727405046574,0.08989082004698516,0.04584933119076729,-0.11690448355406678,0.023395205827369318,-0.04394089463062688,-0.15429041629667378,0.08657117644715256,-0.059788591501707934,-0.10744270847065493,0.002554137655338872,-0.04134288462195505,-0.13726270599819207,0.04615483449557676,-0.16555513479468698,-0.021921017538405942,-0.03242278849372083,-0.03924066689299159,-0.09731850078710291,0.02836636362137633,-0.04190766655976725,-0.05232668335967348,-0.09331273742240631,0.13423997893894585,0.003214830714405066,0.07656801173959281,-0.06129389953890629,0.004733073686388929,0.0408135373053721,0.18576895759799578,0.06204241704930217,-0.010694317756790653,-0.04619306685508454,-0.03436698340509256,0.07190609639451491,0.13137431769835403,0.022165872431542537,0.0500570424136816,0.1591061777971617,0.009971135870177493,0.2174896348594645,0.029923597959179572,0.03816480738435834,-0.06020439918694554
"X26",0.22700559547106403,-0.20195109104452946,-0.2754782758773607,-0.05670228854451493,0.11828057894926872,-0.11016447099218003,0.10098807739850504,-0.11509801038809317,0.11466031314348635,-0.14081507566053142,-0.11629149208828583,-0.0535841210815474,0.03813756118952559,0.11895112667560898,0.1612534664214909,-0.13971364825127838,-0.03563999031499857,-0.6316069886685957,0.6293441491893264,0.023580390503122006,-8.829678769456865e-05,0.011860401029357481,0.026182347780443958,-0.01752218453115601,0.045184461377253904,-6.747356990185137e-05,0.007670460042467199,-0.09606638905627989,0.048104380640855336,-0.06239926326921527,0.26572233170211307,0.06923293990829014,0.19297418472245262,0.06721895354169649,0.09484472168565854,0.10629079515854813,-0.013831945861183486,-0.048572157120722805,-0.07222064052288883,0.07235816695969487,-0.03936154351263059,-0.04954320527872309,0.014110875543230126,-0.03742459053351362,0.06802011717935234,0.038457309315096014,0.10385991112891871,0.15346658516585865,-0.03016009665125584,0.08380984042660747,0.008048701010497187,-0.026602529509999685,0.005512431470249574,-0.09079267907790069,-0.010237747315746388,0.07031095914758133,-0.07126205355417167,0.057608040770555785,-0.07086660568429204,0.0808699750549958,-0.05646706381084171,0.026324427998411237,-0.055087326353162276,0.041180563389076955,-0.03653787136874693,-0.10391919418452873,0.026202968321101,-0.01303694572611807,0.01246381152962529,-0.030878812076013767,0.07358080994667562,-0.004493665488046161,-0.0018431030222121373,0.029353692329846783,-0.056499150899156955,0.03360462334167445,0.10100848539287982,-0.12961177874824212,0.02044941741763569,-0.006304125240472941,0.021576302207943154,0.00628332688012339,0.012257310157285787,-0.07379084307678362,0.06022821126509565,0.08990293096409756,0.04586419817632723,-0.1169210406068494,0.023401153426396305,-0.04394855096144873,-0.15431411311327864,0.08659205299494607,-0.05981237393561465,-0.10745624245847557,0.0025453434983714563,-0.04132932374067164,-0.1372685801389472,0.04612534610443296,-0.1654839512935442,-0.02192211714476422,-0.03245772652724476,-0.039241600767358525,-0.0973245920276974,0.028364490834063102,-0.04190697207468808,-0.052336230781765226,-0.09332195214935866,0.13426733615783704,0.0032321288938767546,0.07657757741594066,-0.061300605082189534,0.004729177286374198,0.040829426063176896,0.18580457730947142,0.06209415698480046,-0.01069586102382495,-0.04620146869174981,-0.03434077301435842,0.0719362613371011,0.1313848259535212,0.02217128038003929,0.050061719980554066,0.15912470378127067,0.009980458403997514,0.2174987815063867,0.02989632191540518,0.037906315396270804,-0.06003409002244016
"X27",0.2264244116387418,-0.2019132889875491,-0.2754790289801031,-0.05688950509371278,0.11752285164208164,-0.10905872683902385,0.10115854983610308,-0.11521759784790131,0.11494579220521187,-0.14036138618082186,-0.11599427414102481,-0.05335466019215385,0.03814377117245343,0.11918987202940938,0.16102776755760959,-0.13982652975363805,-0.0356713932674311,0.08624786846378954,-0.060693534850315076,0.02379228303149667,-8.094621107317725e-05,0.013073358530789543,0.02657789410482775,-0.017475645704625647,0.045213469328897665,-0.00015621449108315359,0.007646415452792312,-0.09615652640489307,0.04816115213638003,-0.062348164838089866,0.2659507442933597,0.0697342548623697,0.1932454227216028,0.6140755575905381,-0.7278382030499345,0.10636509625445659,-0.00881775911051483,-0.04690152221361705,-0.07320058632954604,0.07167235199974797,-0.03939608036036252,-0.04958416521904663,0.013450984916505848,-0.03751583471651824,0.0678886626624303,0.03818418102718831,0.10353372508064863,0.15331972089352416,-0.03006607957196304,0.08386620191964556,0.008374238065412026,-0.02640195533171628,0.005332449203406337,-0.0908545090536364,-0.010048958556861422,0.07059631295966022,-0.0714274870686078,0.0574271047085273,-0.07092520058391932,0.080902189542681,-0.056782784947161276,0.026638879691949578,-0.05512686676499862,0.04143593361573603,-0.03657753782695602,-0.1041206596363893,0.026612604699258337,-0.012728650408918893,0.012576418212373182,-0.030781937669537632,0.07363016698442643,-0.004333150704482489,-0.0018238853537352376,0.029365078673271705,-0.056533460459839056,0.03362431682092244,0.10108244163789736,-0.12972531337683874,0.020494732669030912,-0.006342602611465519,0.021546049000122275,0.006259423976080852,0.012251935725287589,-0.07384565456348476,0.060258190392372,0.08995512289993048,0.0458919230596629,-0.11699432770937189,0.023377777078822787,-0.043976456384378734,-0.15440966617011812,0.08665134894944237,-0.05983977368118663,-0.10753490255180982,0.002549472497889029,-0.041392151151761473,-0.1373371366626763,0.0460312433634317,-0.16544314531422633,-0.02194750283795763,-0.03240467310830887,-0.039263677540992775,-0.0973884298881422,0.02841781320113691,-0.04195027951889986,-0.05237120244879942,-0.09338736110565712,0.134350987042688,0.0032114618507167536,0.0766595549474711,-0.06133720352287927,0.004722024151636808,0.040570069848139906,0.18592003794845238,0.06182415592442054,-0.010695463690205938,-0.04623752363837974,-0.0342781936025596,0.07195153604563742,0.13159090533400836,0.02236601821369534,0.05007081765297206,0.15930525878603258,0.009976656475816128,0.2164202689297448,0.029236654630207883,0.03805950063883792,-0.06023420566020558
"X28",0.2266479554215479,-0.20197832379418137,-0.2753264932173114,-0.05671191367893427,0.11840702312568199,0.45020533336372964,0.9216633540479054,-0.11214652469854584,0.11460272857348566,-0.1414014302436098,-0.1164970239232388,-0.052694275887371585,0.038373500923875994,0.1189292891505915,0.16087572202446798,-0.139721199869166,-0.0356479271826235,0.08614153838113205,-0.06074506514428885,0.02354074629397107,-4.4535527030199396e-05,0.013059893611787651,0.026624484352439123,-0.017473818759790677,0.04520982004719051,-0.00017250192167460562,0.0076236852923016055,-0.09597455041413704,0.04819086898526768,-0.06232768771374707,0.26576713744573194,0.06926842899366004,0.19310743445867246,0.06719582994242158,0.09473144621327817,0.10635078692110969,-0.014042592808148116,-0.04854877103425745,-0.07220344913411444,0.07235766124767905,-0.039348429100602246,-0.04955164930178069,0.01409934149234224,-0.03746181295611164,0.06802762137635639,0.03845802627681215,0.10387897435698808,0.15344813728205958,-0.030098136621049973,0.08381251212039159,0.00805981037550167,-0.026704638130011133,0.00571227858274586,-0.09076364028473975,-0.01010665974406802,0.07034548044364952,-0.07122520983420662,0.05762131548148148,-0.0708791451659308,0.08086698103633395,-0.05660919603548306,0.026320753252479137,-0.05508627243577294,0.04120181844710833,-0.03641868515225668,-0.10389736209932471,0.02617374959022957,-0.013031510583514204,0.012536457035313217,-0.030851305844089252,0.07357534482373872,-0.004519916625896912,-0.0018172434175887904,0.029355155198792764,-0.05649435967311571,0.033603030457552044,0.10105169117768527,-0.1295872505727285,0.020495004143659394,-0.006338897954638471,0.021572743404429214,0.006259007498157442,0.012253978311154908,-0.07381195783744388,0.06022733826987705,0.08989120936895122,0.045855805640453065,-0.11691203713109287,0.023387386987930123,-0.04394660310379827,-0.15429611432591164,0.0865718296352031,-0.05980158852289309,-0.10745044450333152,0.0025563774644275306,-0.041347161332817024,-0.1372467285282531,0.04604945912765199,-0.1654149180812978,-0.021936038949816355,-0.03241736974456534,-0.03923860559266825,-0.09732072304490383,0.0283611156090736,-0.04192320775238492,-0.05234546051072167,-0.09332088550154563,0.13426528732432172,0.003214768902939331,0.07659402565694153,-0.06130388840164699,0.004732181166820825,0.04079457303269205,0.1858092467337464,0.06205494675137396,-0.01069500035819552,-0.04621288348412661,-0.03426468113798483,0.07197554272434599,0.13134803189896438,0.022224938401634923,0.050047305777371334,0.15913442407817713,0.009951462164567685,0.21754970448278935,0.02993970639994715,0.037948831984502225,-0.060346626724317926
"X29",0.22690777463471273,-0.2018445750610734,-0.2756614670746588,-0.05647348549728378,0.11822895069939383,-0.11004056773143184,0.10099823273086668,-0.1153605528534897,0.11486315445863446,-0.1410542164377249,-0.11639205655337326,-0.052999956549129784,0.03755596409304783,0.11889236663588458,0.16091076949521552,-0.1396956005980338,-0.03564500161027156,0.08652268594918336,-0.06159545683950969,0.022794137584107987,0.0002343597393013605,0.013005314353902895,0.027355104943993024,-0.01909455028560291,0.04718195391440257,-0.00015900651741869302,0.0047308209986732415,-0.09969605287308007,0.05414481468117481,-0.05723105338123324,0.26571137311766896,0.07803940637400349,0.2043467393792914,0.06723686878743107,0.08389175949353803,0.10628159699715219,-0.0009620161337032712,-0.03644491146065807,-0.07219633669677687,0.07235161773806836,-0.0393584592635432,-0.04955097619130214,0.014103393317842886,-0.057145840737703374,0.06801881919214538,0.038465171492143256,0.07958186281805064,0.18753933067630088,-0.06921179707268,0.083808044231603,0.007998585338766701,0.024205456473901203,-0.05176036008877916,-0.09076207189671137,-0.07249886955880189,0.1376738269404193,-0.14826027692159297,0.05760858323495189,-0.0708696129858476,0.0024429527980162164,0.029731901708602664,0.026318360292276067,-0.05507976199702393,-0.043570343049529545,0.04194953728568435,-0.03669768340849451,-0.032030628513854534,-0.05911827208339897,-0.03318741279752601,-0.07224716580239617,0.07357018753119136,-0.0388248333838458,-0.025369290761666604,0.05110044696539016,-0.05649227370452648,0.03360264688553044,0.11843993866854362,-0.11705989769167423,0.012142246746701352,0.001342571685211057,0.02770083708935012,0.011726447791756755,0.015538679202191085,-0.07547001151775326,0.061446965865658766,0.09060733267946859,0.04627329338253002,-0.1169064103346699,0.023734773790864354,-0.04394205685072822,-0.15429317857696034,0.08678568881879847,-0.05979478371831886,-0.10728773083139213,0.0025505247732332506,-0.04129220518901287,-0.13743261394652398,0.04635591778197762,-0.16546276160212886,-0.021904143940561695,-0.03247076238597368,-0.03924394500737861,-0.09731381029551454,0.02837904810225769,-0.04190103020107408,-0.05231556632415563,-0.09331392367636428,0.13423402101465942,0.0032291462052152524,0.0765606626004233,-0.061293236311990885,0.004727462413472192,0.040840646863282454,0.1857653181266048,0.06210561676511454,-0.01069471609942263,-0.04620086750063087,-0.03430114852545836,0.07199080489708222,0.13135444496598947,0.02211961522188745,0.05007728293705373,0.15907546654119847,0.00998256225843705,0.21748429537161498,0.029672324106617486,0.0379148257700762,-0.0601792458975718
"X30",0.22682261636388093,-0.20196407197299937,-0.2751239347424816,-0.7261339202464736,0.11825716699979058,-0.11013731306380868,-0.632045575413574,-0.11509445663826057,0.11461518959572223,-0.13972027164041992,-0.11622335282035545,-0.05297468485500433,0.037714766923515934,0.11928591310096705,0.16086490973189332,-0.13994119370212701,-0.03563259378610742,0.08626394725422322,-0.060843455854651146,0.023407530566606553,-0.00029048218399908106,0.013021521284620512,0.02679964812480004,-0.017538916399584308,0.045177152751349675,-0.00017168260384912382,0.007639624341677515,-0.09607398049552815,0.047725753247407986,-0.06239430938582833,0.2652236127308528,0.06911252950451124,0.19295272807574354,0.06719112841749586,0.0948482692581804,0.1062753595890801,-0.013862313841088195,-0.04858344462119857,-0.07219127434539772,0.07234694892739309,-0.03935083785205957,-0.049542885209716066,0.01410391457856024,-0.03740223648629075,0.06800894749750587,0.038473878749593425,0.10383493037313668,0.15344315425790053,-0.030115670039077294,0.08380080938270325,0.008017037184214123,-0.02656573153448491,0.005481687771214485,-0.09075438056615574,-0.010209215194102911,0.07033771056520385,-0.07131435352365813,0.05762357260030322,-0.07087110150275253,0.08096099286554767,-0.0566310356913219,0.026321165490221777,-0.05507332032401372,0.04109389668287716,-0.03638704378818161,-0.10385389242228518,0.026192329639418907,-0.01307413834314079,0.012493106294715834,-0.03082770847305246,0.0735659757012357,-0.004542356729443404,-0.0018294855857476455,0.029069931310882206,-0.05641267149106339,0.03359963210410425,0.10107869348501602,-0.12959249605767237,0.020457276288268895,-0.006359519157100166,0.021550057665689237,0.006302301699767426,0.012266665352613872,-0.07377782971058157,0.060217252300800495,0.08987948886113059,0.04585239877121568,-0.11689860608374589,0.023415132732533223,-0.043936059759847115,-0.1542844236424145,0.08657808700287062,-0.05981183160568608,-0.1074348595912937,0.0025469795851715536,-0.04133212153311531,-0.137284910552936,0.04614446899520826,-0.16548121799042728,-0.021895700279034622,-0.032453925120945415,-0.039225448296817796,-0.09730504575312321,0.028373921537176435,-0.04188696189806536,-0.05231694839298878,-0.09331397421636754,0.1342195234367829,0.0032204407073685016,0.07657534817884169,-0.061291152178646634,0.004717586306633093,0.04080510797528971,0.1857631993028126,0.062089232047379664,-0.010698427783415279,-0.04619713886451999,-0.03428296521295759,0.07195334552246146,0.13136948229163736,0.022150937379871703,0.05006255512067458,0.15908937547031854,0.00997356153115585,0.21746490116691194,0.029844921662123516,0.03790887686770555,-0.06002944662818508
"X31",0.2265427969276077,-0.20201791082132306,-0.2755556427346519,-0.05676389736430807,0.11825795636031271,-0.11013130602821287,0.10103722943174234,-0.11520590601470607,0.11458279934249015,-0.1409287702522823,-0.11636982520335996,-0.053585759407802525,0.03807902387762748,0.11897487014396052,0.1609308831208488,-0.1397233693883419,-0.035644420315055804,0.0861191185336285,-0.06084247487032268,0.02356558047696358,-0.00011604564635838988,0.012985831339889325,0.026722961978249683,-0.017550355594908102,0.04516919155876427,-0.00016094551089422795,0.007669254306818235,-0.09603845515123031,0.048081629548182465,-0.06237167936254915,0.2656241964215607,0.0693710503872044,0.19295904632418864,0.06728500901842732,0.09479588719438779,0.1062853591508757,-0.013838075403496181,-0.04857199612815331,-0.07218447817653768,0.0723494351235966,-0.03935386176369059,-0.049544095858460015,0.014107734028019271,-0.03740602473723216,0.06801090993744832,0.03846816932730388,0.1038684839888066,0.15344899639433143,-0.030113386132659823,0.08381208660771289,0.008021004362680271,-0.02652995909925781,0.005623007083543074,-0.09078121087626592,-0.010108560971696406,0.07030526670331984,-0.07127659607360717,0.05761897764804313,-0.07087686353592587,0.08092861620641319,-0.05646759603332219,0.02632024313101202,-0.05507998935294381,0.041140651292115735,-0.03647655447798398,-0.10384783313483203,0.026107795742149366,-0.013021625611561857,0.012515435956625003,-0.030875073325373488,0.07357632098449954,-0.004532400117445512,-0.0018339389738455413,0.029344791976934636,-0.05649193791972364,0.03360143869356935,0.10106255640271962,-0.12958456522400064,0.020473709534139593,-0.006359469492165879,0.021589187971887348,0.0062634161495792534,0.01225232155777143,-0.07379203844871614,0.06010013877946218,0.0899160486586055,0.04586139719870198,-0.11690830868959298,0.023421940869922882,-0.04394367917634415,-0.15429460172939963,0.08640711472827814,-0.05968728184315518,-0.10742743561759999,0.0026398266994422655,-0.04132858801794778,-0.13732462841484383,0.04612972679332164,-0.16550899262539198,-0.021900478678346845,-0.03247589759716227,-0.03962726643071048,-0.09805444652428083,-0.4113700465649171,0.8505979837177597,-0.052334112814023476,-0.09418188414952047,0.13424198919479094,0.003168846833996799,0.07635709444776699,-0.06117155407481726,0.004728186160344705,0.0408687257805138,0.18584370180601306,0.06212843176798069,-0.01069492641725461,-0.04620575626769999,-0.0343291663894248,0.07197439899682913,0.1313463881531169,0.022122672105749776,0.05005564016775372,0.15910638626727266,0.009988063275711768,0.21746040667174452,0.02981398831810623,0.03790224951624201,-0.060453474237808245
"X32",1.2253668333250558,-0.1955492221716556,-0.27552123765043773,-0.0563865718671251,0.11838833029875184,-0.10974300473360422,0.10086824841894118,-0.11515534853189296,0.11467668875006957,-0.14085935174287795,-0.11646691383543412,-0.053410245759593085,0.03811302649346677,0.11896797251223568,0.16091704620178712,-0.13972519659951801,-0.03564940648599778,0.08611474421094174,-0.06085880073707922,0.023584107152892157,-0.0001110049416632031,0.012993619798570463,0.026669516905583557,-0.017552341118061403,0.04520655680086728,-0.00015942634975180976,0.007668215966023857,-0.09605761790437732,0.048082610471108005,-0.06238119539026312,0.2657172482285235,0.06923516592410581,0.19292768914191066,0.06722911853143196,0.0948356112532951,0.10627842048653512,-0.013886855182958383,-0.048582918172987224,-0.07218293839149978,0.07236959478297657,-0.039346541838736815,-0.04953940043774021,0.014101316105121196,-0.037422841502204394,0.0680071307978242,0.038459678514872496,0.10381197679691272,0.1534930212423243,-0.03016604189172925,0.08381000173656865,0.008044739150922745,-0.02662265715364196,0.00553223132456207,-0.09077657523771372,-0.010313075208974927,0.0704080584572658,-0.07123588245649537,0.05760539743408236,-0.07087946759677485,0.08077205687509023,-0.056556985359444346,0.02632093176896509,-0.055082506132391094,0.04106129249396327,-0.03671011845894529,-0.10391003995197008,0.02616214199493443,-0.013064319901631713,0.012506745288789034,-0.030831946425627477,0.07357217540390928,-0.004450932961942954,-0.001879510850128859,0.029425915531636353,-0.05649102004506222,0.03360045439202672,0.10108560824107728,-0.1295990203972842,0.020476545235345204,-0.00632889241775383,0.021574914441275732,0.006273743193676001,0.012269852623825213,-0.0737999717044971,0.06022504888502312,0.08988753124639601,0.04585675401579884,-0.11690589190340975,0.02340243942796737,-0.04394287349006073,-0.15429393185674972,0.08656448382808629,-0.059801007953751525,-0.10745216347991514,0.002545739625982221,-0.04132205263306173,-0.13729003429758668,0.04611357820237851,-0.16544232812090212,-0.021918275223712577,-0.03244194876560111,-0.03923489324172257,-0.09731472796695874,0.02836138791291948,-0.041913395107211544,-0.05232186255860011,-0.09331648723782801,0.134245065489804,0.003229237328191575,0.07655967072400331,-0.06129457713415405,0.004729434328330594,0.040778781280695675,0.18579236117886275,0.062017013068381664,-0.010705350497596924,-0.04619197622643587,-0.03429978896870651,0.07195543402867245,0.13135269212973402,0.02219110278110652,0.0500397042925399,0.15912460009195065,0.009979917437609944,0.21753567390255543,0.0299166957627569,0.0379271102964368,-0.05994317358203407
"X33",0.2267319750182971,-1.1924860996791629,-0.27545875296540595,0.02031456640682484,0.11784744918282403,-0.10965308758632666,0.1010439848263063,-0.1151032283516832,0.11474679626945482,-0.14057515253214561,-0.11612983242152092,-0.053577701612347414,0.03841823989283557,0.11898244974058829,0.1606899102624962,-0.13968504865327905,-0.03563901252077822,0.08614846453384854,-0.06086928102602723,0.02358751406227084,-0.00012412295867590066,0.013013935501843647,0.026663714757420014,-0.017543425336053575,0.04520134459776541,-0.0002133404551339938,0.007679966992761054,-0.09607642091491557,0.04817115751780281,-0.062415376952762246,0.2658085411930907,0.06929602839854254,0.19304519606870557,0.06723066169003161,0.09479403546942557,0.10628991301114733,-0.013853693318066013,-0.0485894716761849,-0.07220595030279442,0.0723631526210682,-0.03936413404836744,-0.04955503527325977,0.014115945534692555,-0.03741375195193613,0.06803279857618852,0.0384691002547244,0.10389917624715125,0.1534390076460388,-0.03012084811131221,0.08382147322750579,0.00801499177594165,-0.026584862198139058,0.005474957846481614,-0.09079390486090816,-0.010283138000466825,0.07039028102042111,-0.07118678888465907,0.05761283685497707,-0.07087444358528612,0.0808282770494041,-0.056520743835063204,0.026327933453352527,-0.055082089754596476,0.04108863951708215,-0.03646943386384574,-0.10390063586544433,0.026196840639958155,-0.013016301623156394,0.0125069105905085,-0.030830540607177,0.07358222311160512,-0.004519973915946752,-0.0018156291670765124,0.029314762712904938,-0.056499549724641246,0.033606707308398334,0.1010563782118132,-0.12964510484742106,0.020474926662729733,-0.006331500528876128,0.02158390352409852,0.006278944726128949,0.012271438260075398,-0.07380184387976563,0.060222938273902425,0.08990253723040068,0.04586417980791404,-0.11692431998829335,0.023394649780319927,-0.043945245223170226,-0.15431789361959242,0.08658513411628538,-0.05981229369704557,-0.10746392357596464,0.002547888901943091,-0.04134834100341395,-0.13730602505764283,0.0461037741133234,-0.16546842748321927,-0.021927071976552096,-0.03243653813789354,-0.039241331422586866,-0.0973344463830346,0.028369350379931862,-0.041924454834263894,-0.052342260930040185,-0.09332711158705279,0.1342632736751388,0.0032123500458493387,0.0765916351808871,-0.061302543402194945,0.004736153490601397,0.04080912029005457,0.18581383293204837,0.062009967521991644,-0.010703825605908846,-0.046206800939021804,-0.03431004102247447,0.07191039697377252,0.13132576076913927,0.022126026279830666,0.05005447740667441,0.15914742015148453,0.009966638381365849,0.21747895685238447,0.02994017977171024,0.03789485574442046,-0.05981259919333333
"X34",0.22659558465143875,0.7648340398375474,-0.5068941938482925,-0.057115506432860313,0.11819828453061317,-0.10999855686698468,0.10116853682767606,-0.11515411495555533,0.11472683106482577,-0.14092183622043566,-0.11678236527754395,-0.053389079151209516,0.03809526441745177,0.11887113318310705,0.1608534809850073,-0.13971195282084234,-0.03563880673551464,0.08612421404496441,-0.06082995844567242,0.023531750018750058,-6.466616045893846e-05,0.013029950710987797,0.026608424927354414,-0.017537571697359616,0.04519671097820608,-0.0001472529042691922,0.007681853211996033,-0.09605193629445416,0.048088938409714455,-0.06239552253583016,0.2657604023483874,0.06926857144310912,0.19305368310036108,0.06721741408999957,0.09480534346503602,0.10629203191221986,-0.01382711129898598,-0.04856457651200378,-0.07221996544845635,0.07235628199137965,-0.039357739465588626,-0.04954423630466627,0.01410582105716674,-0.03745103481027527,0.06801083486292896,0.03845828237002685,0.10389875640568738,0.15341883591131267,-0.03008558340713671,0.08381729338124036,0.00808152285295562,-0.026670610833165263,0.005450061236983419,-0.09081525787289337,-0.010201006100483658,0.07045064776826628,-0.0713560815431143,0.057620373500201036,-0.07089130526608664,0.0808410555062637,-0.056547528571041915,0.02631934320318395,-0.05508422963793883,0.0411611514602284,-0.036384259179597846,-0.10397633104268633,0.026305821285836126,-0.013002324143575977,0.012582450994178783,-0.030890049463258892,0.07357996879261502,-0.004576433676868244,-0.001825041809631289,0.029314448482054705,-0.056495275060881395,0.033604055327520185,0.10102379673525529,-0.12960691730002433,0.02044502817850844,-0.006312557863859161,0.021589558114857455,0.0062929923874965816,0.012257955122817504,-0.0737956337505723,0.06023106094452636,0.0899011651552147,0.04585950702436045,-0.11691584953347618,0.023397263645571716,-0.04394386244390968,-0.15430922813783882,0.0865827892444216,-0.05981092952507567,-0.10744939736865068,0.002545866422410402,-0.04134343074707825,-0.13730071437092098,0.04613212769007489,-0.16550961130368314,-0.02191769127751291,-0.03244486623159914,-0.0392435173055744,-0.09732089240234916,0.028364182676846456,-0.04190623190338161,-0.05233781836490995,-0.09332385447234305,0.13425793803312625,0.0032267028976018155,0.07657605474532699,-0.06129459773767172,0.004736111877731109,0.04078178675149452,0.18579669797219195,0.06200141729689276,-0.010697831427607189,-0.04620404746648706,-0.03432175056339501,0.07192123328510266,0.1313419722809824,0.02213946015812693,0.050056942017101765,0.1591260863838926,0.009984184536389797,0.2175165722367416,0.02996238977130687,0.038062488433153414,-0.06018939296119993
"X35",0.22684736443364797,-0.20190171363403636,-0.2756251945535302,-0.0566379947790812,0.11828330671541867,-0.11007437404993359,0.1010127619667368,-0.11518294241607487,0.1146397230686449,-0.14089972951531923,-0.11636159025596321,-0.05349909608259007,0.038080123871669966,0.11886321540792968,0.16096548510096323,-0.13971456091950463,-0.03563168847923924,0.08608870141880899,-0.0608474751760567,0.02357552298391672,-9.612129110864725e-05,0.01301536897397568,0.026659367219937707,-0.01752001415658148,0.0451697048802777,-0.0001790276807385218,0.007678114389305758,-0.09605336992826469,0.048062286729520606,-0.06238763325031494,0.26569514599729943,0.06920081400400709,0.193011641538368,0.06723180456218746,0.0948304874285514,0.10627904494633153,-0.01384578425958575,-0.048618851301668174,-0.07222668597667592,0.07234969811982991,-0.03933542764852641,-0.049547906906782804,0.014108726073919982,-0.03739800427016786,0.06801829822555445,0.03846024236231357,0.10385930083307689,0.15346239137790244,-0.030132688829335483,0.08380543433346238,0.008036481887667807,-0.02656394055048227,0.005546514070698815,-0.09076518464451594,-0.010193433168095546,0.07045285847648906,-0.0713156688807972,0.05761128757668111,-0.07087860480899182,0.0808061113092423,-0.05646207832378113,0.026316241152880705,-0.05508075030038717,0.04110004484166627,-0.03646782700480635,-0.10395434412277879,0.026248104796614085,-0.013009931495960752,0.012559638683708815,-0.03081962647156945,0.07357068980747193,-0.004489732539663964,-0.0018079793954322572,0.02935669471951367,-0.05648708473317027,0.03360031116987636,0.10106035609189526,-0.12959562688463244,0.02043278476382557,-0.006284891111825784,0.02158112605916796,0.0062543018717109156,0.012238363843075497,-0.0737874781511727,0.06021885554035083,0.08988953814524585,0.04584501331058617,-0.11690312521740821,0.02339573278738778,-0.04394134562494557,-0.15429184950463093,0.08657938759255775,-0.059789545759359436,-0.10745269455089637,0.00255359957093549,-0.04132930911623724,-0.13729392429647427,0.046132368640639,-0.16552371522343093,-0.021920175230992833,-0.032444910175973216,-0.03923363031627623,-0.09731689616805365,0.02838238366049565,-0.041904392551256074,-0.052326702346338565,-0.09330680544182833,0.13422359425812916,0.00321889850545997,0.07658089452861279,-0.06128818148398318,0.004720263226594354,0.04082076860398596,0.18577366413694593,0.062112505614688875,-0.010531591249107346,-0.04619804206203673,-0.03430203071303804,0.07237736881956384,0.6796103885551003,0.022140613648832488,0.05006829379030383,-0.6742158446921276,0.009999580073333826,0.21738046028352295,0.029870481955688883,0.03790602845885154,-0.06017298587609693
"X36",1.202076721179471,-0.037300212099490575,-0.2756647338940407,-0.05661157582520559,0.11833899017617273,-0.11078601078263199,0.10086265272309901,-0.11519531658999231,0.11458143794200547,-0.14098019519916585,-0.11634750286283971,-0.05361267495214132,0.037991029578242484,0.11887561884232896,0.16072840865020865,-0.13971048887825668,-0.03564097758290411,0.08588611759614556,-0.06080644442318336,0.023551696457473268,-6.500266176605397e-05,0.012995139183049901,0.026466860924994864,-0.017614765473090117,0.045154792915813514,-0.00017172283311495955,0.007654242703266465,-0.09605646224139917,0.04805058962197308,-0.062381969608356506,0.26571598526371454,0.0692829576479782,0.1930069501996846,0.06720471953044811,0.09482400165243125,0.10625889018814359,-0.013826096996947743,-0.04852954949838254,-0.07219876570340039,0.07233984419648438,-0.03933992877639968,-0.04953399249742323,0.014103863542363104,-0.03738325255202105,0.06800121814461396,0.03845236947819673,0.10388551336227324,0.1533727493505745,-0.030049199311450205,0.08380270564436831,0.008014880097445365,-0.02657073144635112,0.005518494042636638,-0.09075868138439828,-0.010232282392759057,0.07037699672575456,-0.07135243461032799,0.05760560115658167,-0.0708777773830526,0.08074085642977409,-0.05643024315835247,0.026318830982580026,-0.05507001930211985,0.04110120413016429,-0.036506247888552217,-0.10383080703474588,0.02613699175616246,-0.013065227497225414,0.012589180793893326,-0.03082830167424747,0.07355928411691183,-0.0044882013887662916,-0.0018066864695988384,0.029358104502739152,-0.05648236565825554,0.03359834049076634,0.10104560690742768,-0.12958099805231918,0.020465567978538345,-0.006363214243062923,0.021558260432391632,0.006271860926786947,0.012263130377854318,-0.07377666090576296,0.06021811422788223,0.0898875658543958,0.04584994815370321,-0.1168892186089402,0.02341649057689606,-0.04393681406306988,-0.15427445521480532,0.0865720887210311,-0.05980099222987252,-0.10742702228628805,0.0025477955730556358,-0.04131568653058041,-0.1372555431242935,0.04616289529471229,-0.165501385685427,-0.021907987985172645,-0.032449237245650256,-0.03921704437803611,-0.0973000157356291,0.028365940044957696,-0.04188570840449256,-0.052323049244085915,-0.09329714212172083,0.1342132198704486,0.0032315844239682438,0.0765490620405555,-0.06128629393097457,0.004725248046996628,0.04079944045146298,0.1857477934434595,0.06209769049697046,-0.010683866133795402,-0.04619064664340259,-0.034296809327369684,0.07198364557643584,0.13137543509057603,0.02217374956891882,0.05006699925909711,0.15907304004332962,0.009984237775560326,0.21756449678016174,0.029875308284410842,0.03780647620862853,-0.06018593830581535
"X38",0.22675353440767934,-0.2019312252478961,-0.2755849800238237,-0.05678878336783281,0.11823972498075061,-0.11016263442946045,0.10084215744492855,-0.11513183626041976,0.11458907765566596,-0.14088303217889983,-0.11620729187426017,-0.053832293844808206,0.03834941548658371,-0.09470176641211693,0.16095455609345893,-1.1105424730625943,-0.03563524379840303,0.08611241838421484,-0.06108049868834342,0.023547729351525114,-7.463735354338411e-05,0.012816005009624173,0.026690849443830468,-0.017567948203709303,0.04518455075117746,-0.00015910876512776622,0.007667429680841099,-0.09604828726955719,0.04808509555907027,-0.06239166600299156,0.26568185085420515,0.0693285310886953,0.19300950237798137,0.06722798738215302,0.09477481317026674,0.10626828335110931,-0.013876293659385574,-0.0485583187931242,-0.07218669930419469,0.07235949535060518,-0.03935152473613655,-0.049539386783571754,0.014104271802134978,-0.03748137174906245,0.06800412738914578,0.03846518982851361,0.10386923129691082,0.1534230417679186,-0.030139410878053923,0.08379718878978987,0.008038667456900626,-0.026609357686449533,0.005555404148641335,-0.09077012473558448,-0.010219662958360378,0.07040713725527388,-0.07132560029548053,0.05761094474289736,-0.07086414907223497,0.08075273146644572,-0.056577203778149246,0.02631812400984442,-0.055075313984258106,0.04115165800414214,-0.03644693104686137,-0.10386670179257432,0.026176855552454338,-0.013078904224894513,0.012512569761815211,-0.030808182464837196,0.07356895367801462,-0.004458591179488703,-0.0018480755478180889,0.02935285100399245,-0.05648951403761367,0.0335962154862437,0.10103099426503342,-0.12962435453730264,0.020484392086372285,-0.0063659985013313205,0.021550982160348477,0.006262441016003386,0.01224538432917976,-0.07377868725511705,0.06021293348128687,0.08988626490427791,0.04585327517954554,-0.11689659917862176,0.023415354764508067,-0.043938331767141695,-0.15427875911560107,0.0865687864502754,-0.05979964359806545,-0.10742849249467816,0.0025515563935832046,-0.04132162438525556,-0.13728188685092352,0.04615746810859999,-0.16543972956145717,-0.021916696961601468,-0.03244744226080132,-0.03922994990577427,-0.0973082646286223,0.028356670556513964,-0.041905258273571326,-0.05232325870360976,-0.09330233430327167,0.13423375394330042,0.0032227009022212866,0.07655230563792309,-0.0612883023456732,0.004729055418475495,0.04081393246307376,0.1857784494857377,0.06208482772081333,-0.010686735851201288,-0.04619449841848813,-0.03429034547340371,0.07198038097902698,0.13137705593615412,0.02222278380711376,0.05004693322848824,0.15909699660942964,0.009988320635397428,0.21749377609308154,0.02983649477277853,0.03774247198079067,-0.06020628871442386
